<?xml version="1.0"?>
<opencv_storage>
<stage2>
  <maxWeakCount>11</maxWeakCount>
  <stageThreshold>-1.5855317115783691e+00</stageThreshold>
  <weakClassifiers>
    <_>
      <internalNodes>
        0 -1 137796 -4.1760273277759552e-02</internalNodes>
      <leafValues>
        2.9499998688697815e-01 -7.3377484083175659e-01</leafValues></_>
    <_>
      <internalNodes>
        0 -1 1103 -5.1870965957641602e-01</internalNodes>
      <leafValues>
        -7.6941227912902832e-01 7.5392618775367737e-02</leafValues></_>
    <_>
      <internalNodes>
        0 -1 6000 3.7547510117292404e-02</internalNodes>
      <leafValues>
        -2.2082321345806122e-01 6.7086750268936157e-01</leafValues></_>
    <_>
      <internalNodes>
        0 -1 8273 -1.0449420660734177e-02</internalNodes>
      <leafValues>
        5.0374501943588257e-01 -2.7091115713119507e-01</leafValues></_>
    <_>
      <internalNodes>
        0 -1 154266 2.7908263728022575e-03</internalNodes>
      <leafValues>
        -1.5516163408756256e-01 6.1653488874435425e-01</leafValues></_>
    <_>
      <internalNodes>
        0 -1 73153 -4.0911831893026829e-03</internalNodes>
      <leafValues>
        5.3691077232360840e-01 -1.8019676208496094e-01</leafValues></_>
    <_>
      <internalNodes>
        0 -1 25804 -2.2286962484940886e-04</internalNodes>
      <leafValues>
        -6.6437077522277832e-01 1.9022095203399658e-01</leafValues></_>
    <_>
      <internalNodes>
        0 -1 43016 4.7677252441644669e-03</internalNodes>
      <leafValues>
        -1.8664558231830597e-01 7.5995343923568726e-01</leafValues></_>
    <_>
      <internalNodes>
        0 -1 153154 1.6396176069974899e-03</internalNodes>
      <leafValues>
        -1.7628751695156097e-01 5.7368355989456177e-01</leafValues></_>
    <_>
      <internalNodes>
        0 -1 155228 -1.2202314101159573e-03</internalNodes>
      <leafValues>
        -9.5568887889385223e-02 7.9549312591552734e-01</leafValues></_>
    <_>
      <internalNodes>
        0 -1 119022 -7.3291650041937828e-03</internalNodes>
      <leafValues>
        1.6822431981563568e-01 -7.7024203538894653e-01</leafValues></_></weakClassifiers></stage2>
</opencv_storage>
