<?xml version="1.0"?>
<opencv_storage>
<stage17>
  <maxWeakCount>31</maxWeakCount>
  <stageThreshold>-1.3242943286895752e+00</stageThreshold>
  <weakClassifiers>
    <_>
      <internalNodes>
        0 -1 61139 -2.8189331293106079e-01</internalNodes>
      <leafValues>
        -6.4161074161529541e-01 -8.0952383577823639e-02</leafValues></_>
    <_>
      <internalNodes>
        0 -1 13712 2.4172260891646147e-03</internalNodes>
      <leafValues>
        2.4289388209581375e-02 -5.0791466236114502e-01</leafValues></_>
    <_>
      <internalNodes>
        0 -1 110266 -2.9243625700473785e-02</internalNodes>
      <leafValues>
        -5.7303214073181152e-01 5.5012863129377365e-02</leafValues></_>
    <_>
      <internalNodes>
        0 -1 103324 2.1761270239949226e-02</internalNodes>
      <leafValues>
        7.4401356279850006e-02 -7.5432491302490234e-01</leafValues></_>
    <_>
      <internalNodes>
        0 -1 26698 -1.3002806901931763e-01</internalNodes>
      <leafValues>
        4.2616352438926697e-01 -9.4009146094322205e-02</leafValues></_>
    <_>
      <internalNodes>
        0 -1 151964 -1.2355793733149767e-03</internalNodes>
      <leafValues>
        -5.2834886312484741e-01 8.9025273919105530e-02</leafValues></_>
    <_>
      <internalNodes>
        0 -1 147936 -3.2281750463880599e-05</internalNodes>
      <leafValues>
        2.0224434137344360e-01 -1.6615240275859833e-01</leafValues></_>
    <_>
      <internalNodes>
        0 -1 358 -5.1706194877624512e-02</internalNodes>
      <leafValues>
        -7.4936158955097198e-02 3.9249840378761292e-01</leafValues></_>
    <_>
      <internalNodes>
        0 -1 12805 -2.8513965662568808e-04</internalNodes>
      <leafValues>
        -3.8185569643974304e-01 8.0744758248329163e-02</leafValues></_>
    <_>
      <internalNodes>
        0 -1 127863 -9.4299511983990669e-03</internalNodes>
      <leafValues>
        5.2985703945159912e-01 -6.3914269208908081e-02</leafValues></_>
    <_>
      <internalNodes>
        0 -1 113852 1.5093166381120682e-02</internalNodes>
      <leafValues>
        -1.2076056003570557e-01 2.5008282065391541e-01</leafValues></_>
    <_>
      <internalNodes>
        0 -1 1707 -2.5131066795438528e-03</internalNodes>
      <leafValues>
        3.0180120468139648e-01 -9.4495996832847595e-02</leafValues></_>
    <_>
      <internalNodes>
        0 -1 4080 3.7994200829416513e-04</internalNodes>
      <leafValues>
        6.0449052602052689e-02 -4.4394728541374207e-01</leafValues></_>
    <_>
      <internalNodes>
        0 -1 5075 -2.2307107225060463e-02</internalNodes>
      <leafValues>
        4.7088471055030823e-01 -5.9003811329603195e-02</leafValues></_>
    <_>
      <internalNodes>
        0 -1 42991 6.4381666015833616e-04</internalNodes>
      <leafValues>
        -6.9362476468086243e-02 4.1037169098854065e-01</leafValues></_>
    <_>
      <internalNodes>
        0 -1 95219 -3.7188351154327393e-02</internalNodes>
      <leafValues>
        1.2436574697494507e-01 -2.6680585741996765e-01</leafValues></_>
    <_>
      <internalNodes>
        0 -1 162297 -1.2857954716309905e-03</internalNodes>
      <leafValues>
        -1.0091906785964966e-01 3.5222926735877991e-01</leafValues></_>
    <_>
      <internalNodes>
        0 -1 113852 -2.4116979911923409e-02</internalNodes>
      <leafValues>
        4.3552228808403015e-01 -6.6906467080116272e-02</leafValues></_>
    <_>
      <internalNodes>
        0 -1 150085 7.7850309025961906e-05</internalNodes>
      <leafValues>
        -1.2820681929588318e-01 2.1401447057723999e-01</leafValues></_>
    <_>
      <internalNodes>
        0 -1 25747 1.5547692310065031e-03</internalNodes>
      <leafValues>
        6.6173039376735687e-02 -4.7297319769859314e-01</leafValues></_>
    <_>
      <internalNodes>
        0 -1 122469 3.3843684941530228e-03</internalNodes>
      <leafValues>
        -1.2729074060916901e-01 2.4467566609382629e-01</leafValues></_>
    <_>
      <internalNodes>
        0 -1 127301 -3.5735138226300478e-03</internalNodes>
      <leafValues>
        -4.1256558895111084e-01 7.4105091392993927e-02</leafValues></_>
    <_>
      <internalNodes>
        0 -1 123388 -4.7033121518325061e-05</internalNodes>
      <leafValues>
        1.8782821297645569e-01 -1.5487369894981384e-01</leafValues></_>
    <_>
      <internalNodes>
        0 -1 27712 -1.1260221898555756e-01</internalNodes>
      <leafValues>
        3.0298059806227684e-02 -9.6846157312393188e-01</leafValues></_>
    <_>
      <internalNodes>
        0 -1 162138 -1.4395403559319675e-04</internalNodes>
      <leafValues>
        -3.6508572101593018e-01 7.3740430176258087e-02</leafValues></_>
    <_>
      <internalNodes>
        0 -1 57204 -3.2519012165721506e-05</internalNodes>
      <leafValues>
        1.8592879176139832e-01 -1.4990025758743286e-01</leafValues></_>
    <_>
      <internalNodes>
        0 -1 142203 -4.1460712964180857e-05</internalNodes>
      <leafValues>
        1.7068164050579071e-01 -1.5671367943286896e-01</leafValues></_>
    <_>
      <internalNodes>
        0 -1 147439 1.1454995255917311e-03</internalNodes>
      <leafValues>
        -9.2079795897006989e-02 3.0832484364509583e-01</leafValues></_>
    <_>
      <internalNodes>
        0 -1 80761 2.5834442931227386e-04</internalNodes>
      <leafValues>
        7.1876809000968933e-02 -3.8914263248443604e-01</leafValues></_>
    <_>
      <internalNodes>
        0 -1 75344 -2.8584193438291550e-02</internalNodes>
      <leafValues>
        -5.6886923313140869e-01 4.6552300453186035e-02</leafValues></_>
    <_>
      <internalNodes>
        0 -1 88054 5.2892067469656467e-04</internalNodes>
      <leafValues>
        -1.5663805603981018e-01 1.7995175719261169e-01</leafValues></_></weakClassifiers></stage17>
</opencv_storage>
