<?xml version="1.0"?>
<opencv_storage>
<stage5>
  <maxWeakCount>13</maxWeakCount>
  <stageThreshold>-1.6727991104125977e+00</stageThreshold>
  <weakClassifiers>
    <_>
      <internalNodes>
        0 -1 71519 -3.8528603315353394e-01</internalNodes>
      <leafValues>
        -6.6626650094985962e-01 4.9180328845977783e-01</leafValues></_>
    <_>
      <internalNodes>
        0 -1 1180 3.5839615156874061e-04</internalNodes>
      <leafValues>
        7.7963933348655701e-02 -6.7846077680587769e-01</leafValues></_>
    <_>
      <internalNodes>
        0 -1 14417 -1.4100168482400477e-04</internalNodes>
      <leafValues>
        -6.1037135124206543e-01 1.5188895165920258e-01</leafValues></_>
    <_>
      <internalNodes>
        0 -1 147354 -3.9923414587974548e-02</internalNodes>
      <leafValues>
        4.6422111988067627e-01 -1.7121697962284088e-01</leafValues></_>
    <_>
      <internalNodes>
        0 -1 159832 -9.6810486866161227e-05</internalNodes>
      <leafValues>
        -4.0307885408401489e-01 1.9975700974464417e-01</leafValues></_>
    <_>
      <internalNodes>
        0 -1 159812 5.1096710376441479e-04</internalNodes>
      <leafValues>
        1.7123414576053619e-01 -5.0503730773925781e-01</leafValues></_>
    <_>
      <internalNodes>
        0 -1 50508 1.0901195928454399e-02</internalNodes>
      <leafValues>
        -1.6789416968822479e-01 4.1386044025421143e-01</leafValues></_>
    <_>
      <internalNodes>
        0 -1 162335 1.9247605814598501e-04</internalNodes>
      <leafValues>
        1.1217009276151657e-01 -5.2580493688583374e-01</leafValues></_>
    <_>
      <internalNodes>
        0 -1 98652 1.3303037849254906e-04</internalNodes>
      <leafValues>
        1.4999693632125854e-01 -4.6561121940612793e-01</leafValues></_>
    <_>
      <internalNodes>
        0 -1 111065 2.9813306173309684e-04</internalNodes>
      <leafValues>
        -2.2985237836837769e-01 2.8449428081512451e-01</leafValues></_>
    <_>
      <internalNodes>
        0 -1 162219 3.7753791548311710e-04</internalNodes>
      <leafValues>
        9.4025984406471252e-02 -6.3483983278274536e-01</leafValues></_>
    <_>
      <internalNodes>
        0 -1 162219 -2.7727519045583904e-04</internalNodes>
      <leafValues>
        -4.4084706902503967e-01 1.4053037762641907e-01</leafValues></_>
    <_>
      <internalNodes>
        0 -1 105731 -6.9791974965482950e-04</internalNodes>
      <leafValues>
        2.9446667432785034e-01 -2.2729489207267761e-01</leafValues></_></weakClassifiers></stage5>
</opencv_storage>
