<?xml version="1.0"?>
<opencv_storage>
<stage7>
  <maxWeakCount>13</maxWeakCount>
  <stageThreshold>-1.4392664432525635e+00</stageThreshold>
  <weakClassifiers>
    <_>
      <internalNodes>
        0 -1 670 -1.3719639182090759e-01</internalNodes>
      <leafValues>
        -6.3583135604858398e-01 4.7524753212928772e-01</leafValues></_>
    <_>
      <internalNodes>
        0 -1 135336 -1.0577677190303802e-01</internalNodes>
      <leafValues>
        4.3009847402572632e-01 -2.7151140570640564e-01</leafValues></_>
    <_>
      <internalNodes>
        0 -1 126561 9.2557802796363831e-02</internalNodes>
      <leafValues>
        -1.2077026069164276e-01 6.4077389240264893e-01</leafValues></_>
    <_>
      <internalNodes>
        0 -1 103607 -6.2867366068530828e-05</internalNodes>
      <leafValues>
        3.4890332818031311e-01 -2.2285497188568115e-01</leafValues></_>
    <_>
      <internalNodes>
        0 -1 103607 4.7688954509794712e-05</internalNodes>
      <leafValues>
        -2.1847349405288696e-01 3.7697899341583252e-01</leafValues></_>
    <_>
      <internalNodes>
        0 -1 107133 3.6068871617317200e-02</internalNodes>
      <leafValues>
        -1.0006343573331833e-01 6.3827061653137207e-01</leafValues></_>
    <_>
      <internalNodes>
        0 -1 4 -3.2638502307236195e-04</internalNodes>
      <leafValues>
        -7.0030033588409424e-01 1.0054536163806915e-01</leafValues></_>
    <_>
      <internalNodes>
        0 -1 68916 1.2574615539051592e-04</internalNodes>
      <leafValues>
        -2.2143788635730743e-01 2.8928732872009277e-01</leafValues></_>
    <_>
      <internalNodes>
        0 -1 99256 -1.2356258928775787e-01</internalNodes>
      <leafValues>
        5.7919156551361084e-01 -1.4091490209102631e-01</leafValues></_>
    <_>
      <internalNodes>
        0 -1 146847 -1.0346321505494416e-04</internalNodes>
      <leafValues>
        2.8112572431564331e-01 -2.2998711466789246e-01</leafValues></_>
    <_>
      <internalNodes>
        0 -1 154301 -1.1512556113302708e-02</internalNodes>
      <leafValues>
        4.5595198869705200e-01 -1.1741428822278976e-01</leafValues></_>
    <_>
      <internalNodes>
        0 -1 25606 7.3183584026992321e-04</internalNodes>
      <leafValues>
        6.8676121532917023e-02 -6.6826647520065308e-01</leafValues></_>
    <_>
      <internalNodes>
        0 -1 125416 -1.5800728579051793e-04</internalNodes>
      <leafValues>
        3.0540326237678528e-01 -1.8588259816169739e-01</leafValues></_></weakClassifiers></stage7>
</opencv_storage>
