<?xml version="1.0"?>
<opencv_storage>
<stage3>
  <maxWeakCount>13</maxWeakCount>
  <stageThreshold>-1.1683685779571533e+00</stageThreshold>
  <weakClassifiers>
    <_>
      <internalNodes>
        0 -1 128031 -1.4574176166206598e-03</internalNodes>
      <leafValues>
        -6.2878352403640747e-01 6.9811320304870605e-01</leafValues></_>
    <_>
      <internalNodes>
        0 -1 56690 6.8341707810759544e-04</internalNodes>
      <leafValues>
        -2.4809376895427704e-01 7.2988313436508179e-01</leafValues></_>
    <_>
      <internalNodes>
        0 -1 13632 1.7809732817113400e-03</internalNodes>
      <leafValues>
        2.1720963716506958e-01 -5.1289218664169312e-01</leafValues></_>
    <_>
      <internalNodes>
        0 -1 49476 -1.3788248179480433e-04</internalNodes>
      <leafValues>
        -5.9557902812957764e-01 1.7920580506324768e-01</leafValues></_>
    <_>
      <internalNodes>
        0 -1 52054 1.6954769380390644e-03</internalNodes>
      <leafValues>
        -1.7537932097911835e-01 6.1510360240936279e-01</leafValues></_>
    <_>
      <internalNodes>
        0 -1 129387 1.3266000896692276e-03</internalNodes>
      <leafValues>
        -1.4157997071743011e-01 6.4970356225967407e-01</leafValues></_>
    <_>
      <internalNodes>
        0 -1 150994 -1.6337026609107852e-03</internalNodes>
      <leafValues>
        6.0880041122436523e-01 -1.3756564259529114e-01</leafValues></_>
    <_>
      <internalNodes>
        0 -1 12630 -1.5232908539474010e-02</internalNodes>
      <leafValues>
        -1.1830273270606995e-01 7.0079648494720459e-01</leafValues></_>
    <_>
      <internalNodes>
        0 -1 44368 -3.8581998087465763e-03</internalNodes>
      <leafValues>
        5.9779840707778931e-01 -1.3499552011489868e-01</leafValues></_>
    <_>
      <internalNodes>
        0 -1 127861 1.6148424474522471e-03</internalNodes>
      <leafValues>
        -7.3361493647098541e-02 7.3339867591857910e-01</leafValues></_>
    <_>
      <internalNodes>
        0 -1 117441 -1.2190034613013268e-03</internalNodes>
      <leafValues>
        6.5619015693664551e-01 -1.4147323369979858e-01</leafValues></_>
    <_>
      <internalNodes>
        0 -1 146846 4.9996247980743647e-04</internalNodes>
      <leafValues>
        -1.4025180041790009e-01 6.5284544229507446e-01</leafValues></_>
    <_>
      <internalNodes>
        0 -1 42292 3.3207768574357033e-03</internalNodes>
      <leafValues>
        -1.7710883915424347e-01 5.4608482122421265e-01</leafValues></_></weakClassifiers></stage3>
</opencv_storage>
