<?xml version="1.0"?>
<opencv_storage>
<stage22>
  <maxWeakCount>45</maxWeakCount>
  <stageThreshold>-1.1940292119979858e+00</stageThreshold>
  <weakClassifiers>
    <_>
      <internalNodes>
        0 -1 25798 3.4677743911743164e-02</internalNodes>
      <leafValues>
        -5.2792412042617798e-01 1.</leafValues></_>
    <_>
      <internalNodes>
        0 -1 108654 3.6130732041783631e-04</internalNodes>
      <leafValues>
        -1.6737850010395050e-01 1.6106548905372620e-01</leafValues></_>
    <_>
      <internalNodes>
        0 -1 14492 5.2956107538193464e-04</internalNodes>
      <leafValues>
        4.6718575060367584e-02 -5.3477382659912109e-01</leafValues></_>
    <_>
      <internalNodes>
        0 -1 14492 5.1621982129290700e-04</internalNodes>
      <leafValues>
        -2.2327138576656580e-03 9.8175060749053955e-01</leafValues></_>
    <_>
      <internalNodes>
        0 -1 14492 5.2956107538193464e-04</internalNodes>
      <leafValues>
        2.5972738512791693e-05 -7.7937799692153931e-01</leafValues></_>
    <_>
      <internalNodes>
        0 -1 14492 5.2699941443279386e-04</internalNodes>
      <leafValues>
        -4.9113272689282894e-04 1.</leafValues></_>
    <_>
      <internalNodes>
        0 -1 14492 5.2357907406985760e-04</internalNodes>
      <leafValues>
        9.5677160425111651e-04 -8.5325199365615845e-01</leafValues></_>
    <_>
      <internalNodes>
        0 -1 12233 2.2976344916969538e-04</internalNodes>
      <leafValues>
        7.0957586169242859e-02 -3.7864887714385986e-01</leafValues></_>
    <_>
      <internalNodes>
        0 -1 11912 3.1714783981442451e-03</internalNodes>
      <leafValues>
        -4.4804606586694717e-02 5.7030719518661499e-01</leafValues></_>
    <_>
      <internalNodes>
        0 -1 39915 7.7479537576436996e-03</internalNodes>
      <leafValues>
        -1.5649729967117310e-01 1.6744540631771088e-01</leafValues></_>
    <_>
      <internalNodes>
        0 -1 5232 -3.6412728950381279e-03</internalNodes>
      <leafValues>
        3.2689946889877319e-01 -6.0032885521650314e-02</leafValues></_>
    <_>
      <internalNodes>
        0 -1 32559 -9.6015079179778695e-04</internalNodes>
      <leafValues>
        1.9308242201805115e-01 -1.2324668467044830e-01</leafValues></_>
    <_>
      <internalNodes>
        0 -1 95286 -2.9991667252033949e-03</internalNodes>
      <leafValues>
        -3.4264689683914185e-01 6.2673702836036682e-02</leafValues></_>
    <_>
      <internalNodes>
        0 -1 5833 -7.5498980004340410e-04</internalNodes>
      <leafValues>
        -6.4915943145751953e-01 5.3485278040170670e-02</leafValues></_>
    <_>
      <internalNodes>
        0 -1 111012 -1.2092486722394824e-03</internalNodes>
      <leafValues>
        4.3507257103919983e-01 -6.8045593798160553e-02</leafValues></_>
    <_>
      <internalNodes>
        0 -1 158335 2.5000176392495632e-03</internalNodes>
      <leafValues>
        -1.1283383518457413e-01 2.2169890999794006e-01</leafValues></_>
    <_>
      <internalNodes>
        0 -1 162094 1.4505916624329984e-04</internalNodes>
      <leafValues>
        8.0579578876495361e-02 -2.9920062422752380e-01</leafValues></_>
    <_>
      <internalNodes>
        0 -1 160798 2.1864024456590414e-03</internalNodes>
      <leafValues>
        3.1898286193609238e-02 -7.3242950439453125e-01</leafValues></_>
    <_>
      <internalNodes>
        0 -1 73742 7.1398250292986631e-04</internalNodes>
      <leafValues>
        -1.8228602409362793e-01 1.3060286641120911e-01</leafValues></_>
    <_>
      <internalNodes>
        0 -1 56553 -1.5804836153984070e-01</internalNodes>
      <leafValues>
        -6.2208062410354614e-01 4.3148808181285858e-02</leafValues></_>
    <_>
      <internalNodes>
        0 -1 12804 1.5001905558165163e-04</internalNodes>
      <leafValues>
        7.8817792236804962e-02 -2.7582541108131409e-01</leafValues></_>
    <_>
      <internalNodes>
        0 -1 89824 -4.7310756053775549e-04</internalNodes>
      <leafValues>
        -5.6501591205596924e-01 4.1545525193214417e-02</leafValues></_>
    <_>
      <internalNodes>
        0 -1 100559 3.1216219067573547e-03</internalNodes>
      <leafValues>
        2.0067373290657997e-02 -9.4284951686859131e-01</leafValues></_>
    <_>
      <internalNodes>
        0 -1 105193 3.5319328308105469e-02</internalNodes>
      <leafValues>
        2.1709416061639786e-02 -7.4884968996047974e-01</leafValues></_>
    <_>
      <internalNodes>
        0 -1 131524 5.9266964672133327e-04</internalNodes>
      <leafValues>
        -1.0058806836605072e-01 2.3868511617183685e-01</leafValues></_>
    <_>
      <internalNodes>
        0 -1 154060 -6.7776371724903584e-03</internalNodes>
      <leafValues>
        1.1861614882946014e-01 -2.0155933499336243e-01</leafValues></_>
    <_>
      <internalNodes>
        0 -1 161464 -1.5298924699891359e-04</internalNodes>
      <leafValues>
        -3.4254163503646851e-01 9.0645827353000641e-02</leafValues></_>
    <_>
      <internalNodes>
        0 -1 37962 -3.6370655288919806e-04</internalNodes>
      <leafValues>
        -4.2119631171226501e-01 4.9127403646707535e-02</leafValues></_>
    <_>
      <internalNodes>
        0 -1 160075 -7.7508320100605488e-04</internalNodes>
      <leafValues>
        5.4112527519464493e-02 -4.3751007318496704e-01</leafValues></_>
    <_>
      <internalNodes>
        0 -1 152917 -8.4346893709152937e-04</internalNodes>
      <leafValues>
        -4.0369041264057159e-02 8.4570461511611938e-01</leafValues></_>
    <_>
      <internalNodes>
        0 -1 154430 1.0765604674816132e-03</internalNodes>
      <leafValues>
        -8.2120582461357117e-02 3.1673943996429443e-01</leafValues></_>
    <_>
      <internalNodes>
        0 -1 124451 -5.5387513712048531e-03</internalNodes>
      <leafValues>
        -2.7584454417228699e-01 9.9083222448825836e-02</leafValues></_>
    <_>
      <internalNodes>
        0 -1 129948 -1.9926717504858971e-02</internalNodes>
      <leafValues>
        -2.7594774961471558e-01 9.5761425793170929e-02</leafValues></_>
    <_>
      <internalNodes>
        0 -1 115343 1.3069950509816408e-03</internalNodes>
      <leafValues>
        -1.3084119558334351e-01 2.2077491879463196e-01</leafValues></_>
    <_>
      <internalNodes>
        0 -1 72535 2.2688414901494980e-04</internalNodes>
      <leafValues>
        -1.6155290603637695e-01 1.9362537562847137e-01</leafValues></_>
    <_>
      <internalNodes>
        0 -1 147405 5.1955301314592361e-03</internalNodes>
      <leafValues>
        2.6751723140478134e-02 -9.4204330444335938e-01</leafValues></_>
    <_>
      <internalNodes>
        0 -1 91656 8.5362710058689117e-02</internalNodes>
      <leafValues>
        2.7904223650693893e-02 -6.3536983728408813e-01</leafValues></_>
    <_>
      <internalNodes>
        0 -1 96463 -2.9253418324515224e-04</internalNodes>
      <leafValues>
        1.9368642568588257e-01 -1.2871266901493073e-01</leafValues></_>
    <_>
      <internalNodes>
        0 -1 49007 5.9008765965700150e-03</internalNodes>
      <leafValues>
        -9.8057761788368225e-02 2.4647699296474457e-01</leafValues></_>
    <_>
      <internalNodes>
        0 -1 70442 -1.4228053623810410e-04</internalNodes>
      <leafValues>
        1.6499635577201843e-01 -1.5078635513782501e-01</leafValues></_>
    <_>
      <internalNodes>
        0 -1 49575 1.2458331882953644e-02</internalNodes>
      <leafValues>
        -5.9606306254863739e-02 4.3067777156829834e-01</leafValues></_>
    <_>
      <internalNodes>
        0 -1 4111 5.7576742256060243e-04</internalNodes>
      <leafValues>
        1.2066613137722015e-01 -2.4320861697196960e-01</leafValues></_>
    <_>
      <internalNodes>
        0 -1 106801 -7.4305702582933009e-05</internalNodes>
      <leafValues>
        -3.1598317623138428e-01 8.9588932693004608e-02</leafValues></_>
    <_>
      <internalNodes>
        0 -1 86426 -1.7344221472740173e-02</internalNodes>
      <leafValues>
        -4.9651080369949341e-01 4.4216990470886230e-02</leafValues></_>
    <_>
      <internalNodes>
        0 -1 95323 -8.7263304740190506e-03</internalNodes>
      <leafValues>
        2.5092452764511108e-01 -1.2313180416822433e-01</leafValues></_></weakClassifiers></stage22>
</opencv_storage>
