<?xml version="1.0"?>
<opencv_storage>
<stage19>
  <maxWeakCount>36</maxWeakCount>
  <stageThreshold>-1.1375622749328613e+00</stageThreshold>
  <weakClassifiers>
    <_>
      <internalNodes>
        0 -1 13910 -8.7267205119132996e-02</internalNodes>
      <leafValues>
        -5.8426231145858765e-01 -2.5714287161827087e-01</leafValues></_>
    <_>
      <internalNodes>
        0 -1 143915 2.1616244339384139e-04</internalNodes>
      <leafValues>
        -1.9297124445438385e-01 1.4969852566719055e-01</leafValues></_>
    <_>
      <internalNodes>
        0 -1 133756 -2.2535512107424438e-04</internalNodes>
      <leafValues>
        -3.6071646213531494e-01 7.2095714509487152e-02</leafValues></_>
    <_>
      <internalNodes>
        0 -1 133756 2.3931780015118420e-04</internalNodes>
      <leafValues>
        1.2364419549703598e-01 -3.8058745861053467e-01</leafValues></_>
    <_>
      <internalNodes>
        0 -1 14870 1.6711803618818521e-03</internalNodes>
      <leafValues>
        -1.2981185317039490e-01 2.1696700155735016e-01</leafValues></_>
    <_>
      <internalNodes>
        0 -1 111858 2.5109224952757359e-04</internalNodes>
      <leafValues>
        -1.2864716351032257e-01 2.1627506613731384e-01</leafValues></_>
    <_>
      <internalNodes>
        0 -1 122372 -1.4397349441424012e-03</internalNodes>
      <leafValues>
        2.6889151334762573e-01 -1.0192996263504028e-01</leafValues></_>
    <_>
      <internalNodes>
        0 -1 58785 -6.7783497273921967e-02</internalNodes>
      <leafValues>
        2.7060130238533020e-01 -1.1223956942558289e-01</leafValues></_>
    <_>
      <internalNodes>
        0 -1 70489 -8.9262868277728558e-04</internalNodes>
      <leafValues>
        1.8676532804965973e-01 -1.6320398449897766e-01</leafValues></_>
    <_>
      <internalNodes>
        0 -1 156625 -2.1779866889119148e-02</internalNodes>
      <leafValues>
        4.2249330878257751e-01 -6.3501127064228058e-02</leafValues></_>
    <_>
      <internalNodes>
        0 -1 148289 -1.1603178791119717e-05</internalNodes>
      <leafValues>
        -1.8640519678592682e-01 1.6652366518974304e-01</leafValues></_>
    <_>
      <internalNodes>
        0 -1 117887 1.2485921382904053e-02</internalNodes>
      <leafValues>
        3.9483416825532913e-02 -6.5027123689651489e-01</leafValues></_>
    <_>
      <internalNodes>
        0 -1 99303 -4.6643510460853577e-01</internalNodes>
      <leafValues>
        -8.6242628097534180e-01 2.6527287438511848e-02</leafValues></_>
    <_>
      <internalNodes>
        0 -1 11033 8.3371269283816218e-05</internalNodes>
      <leafValues>
        7.6993249356746674e-02 -3.1212899088859558e-01</leafValues></_>
    <_>
      <internalNodes>
        0 -1 156618 -2.3109908215701580e-03</internalNodes>
      <leafValues>
        1.3836622238159180e-01 -2.0894627273082733e-01</leafValues></_>
    <_>
      <internalNodes>
        0 -1 162290 -9.2227547429502010e-04</internalNodes>
      <leafValues>
        -3.2207110524177551e-01 8.6348943412303925e-02</leafValues></_>
    <_>
      <internalNodes>
        0 -1 118977 -6.2164879636839032e-05</internalNodes>
      <leafValues>
        1.9171813130378723e-01 -1.4803314208984375e-01</leafValues></_>
    <_>
      <internalNodes>
        0 -1 112184 -7.9359498340636492e-04</internalNodes>
      <leafValues>
        1.9410414993762970e-01 -1.2963423132896423e-01</leafValues></_>
    <_>
      <internalNodes>
        0 -1 49557 -3.4938708995468915e-04</internalNodes>
      <leafValues>
        -3.7135520577430725e-01 6.5224491059780121e-02</leafValues></_>
    <_>
      <internalNodes>
        0 -1 140 -2.4903746321797371e-02</internalNodes>
      <leafValues>
        4.8268318176269531e-01 -6.6062159836292267e-02</leafValues></_>
    <_>
      <internalNodes>
        0 -1 18055 3.2390849664807320e-03</internalNodes>
      <leafValues>
        -1.0590177029371262e-01 2.6263037323951721e-01</leafValues></_>
    <_>
      <internalNodes>
        0 -1 118977 9.5477400464005768e-05</internalNodes>
      <leafValues>
        -1.2511859834194183e-01 1.9370515644550323e-01</leafValues></_>
    <_>
      <internalNodes>
        0 -1 113109 5.7351280702278018e-05</internalNodes>
      <leafValues>
        -1.5370862185955048e-01 1.6678905487060547e-01</leafValues></_>
    <_>
      <internalNodes>
        0 -1 85967 6.6621854901313782e-02</internalNodes>
      <leafValues>
        3.8026127964258194e-02 -6.6922980546951294e-01</leafValues></_>
    <_>
      <internalNodes>
        0 -1 11033 -2.3582139692734927e-04</internalNodes>
      <leafValues>
        -3.2620334625244141e-01 7.7653191983699799e-02</leafValues></_>
    <_>
      <internalNodes>
        0 -1 113390 -1.7445845529437065e-02</internalNodes>
      <leafValues>
        1.5303491055965424e-01 -1.8456149101257324e-01</leafValues></_>
    <_>
      <internalNodes>
        0 -1 142289 -1.1006855964660645e-01</internalNodes>
      <leafValues>
        -1.2070151418447495e-01 2.5427824258804321e-01</leafValues></_>
    <_>
      <internalNodes>
        0 -1 79210 3.8722004741430283e-02</internalNodes>
      <leafValues>
        -1.1070739477872849e-01 2.4195772409439087e-01</leafValues></_>
    <_>
      <internalNodes>
        0 -1 127284 1.3230096083134413e-03</internalNodes>
      <leafValues>
        5.0966206938028336e-02 -4.8159331083297729e-01</leafValues></_>
    <_>
      <internalNodes>
        0 -1 133231 -2.1894456818699837e-02</internalNodes>
      <leafValues>
        2.3988728225231171e-01 -1.1432161182165146e-01</leafValues></_>
    <_>
      <internalNodes>
        0 -1 151734 7.6884098234586418e-05</internalNodes>
      <leafValues>
        -1.2887589633464813e-01 2.1810846030712128e-01</leafValues></_>
    <_>
      <internalNodes>
        0 -1 44197 1.0974054224789143e-02</internalNodes>
      <leafValues>
        3.9738602936267853e-02 -6.9870996475219727e-01</leafValues></_>
    <_>
      <internalNodes>
        0 -1 9673 2.9133683070540428e-02</internalNodes>
      <leafValues>
        -9.8811119794845581e-02 2.9958581924438477e-01</leafValues></_>
    <_>
      <internalNodes>
        0 -1 101699 -4.7444237861782312e-04</internalNodes>
      <leafValues>
        2.1196888387203217e-01 -1.4259941875934601e-01</leafValues></_>
    <_>
      <internalNodes>
        0 -1 55157 -1.3195987790822983e-02</internalNodes>
      <leafValues>
        -4.9687629938125610e-01 5.6210391223430634e-02</leafValues></_>
    <_>
      <internalNodes>
        0 -1 66716 -7.2108143940567970e-03</internalNodes>
      <leafValues>
        -6.5115982294082642e-01 3.7245459854602814e-02</leafValues></_></weakClassifiers></stage19>
</opencv_storage>
