<?xml version="1.0"?>
<opencv_storage>
<stage11>
  <maxWeakCount>19</maxWeakCount>
  <stageThreshold>-1.2744429111480713e+00</stageThreshold>
  <weakClassifiers>
    <_>
      <internalNodes>
        0 -1 1059 -2.2747243940830231e-01</internalNodes>
      <leafValues>
        -6.0045403242111206e-01 4.5945945382118225e-01</leafValues></_>
    <_>
      <internalNodes>
        0 -1 113923 -1.2973358388990164e-04</internalNodes>
      <leafValues>
        1.6945369541645050e-01 -2.9885980486869812e-01</leafValues></_>
    <_>
      <internalNodes>
        0 -1 103169 -2.8409529477357864e-04</internalNodes>
      <leafValues>
        2.7158746123313904e-01 -1.7475591599941254e-01</leafValues></_>
    <_>
      <internalNodes>
        0 -1 30378 -1.9056356977671385e-03</internalNodes>
      <leafValues>
        3.5332989692687988e-01 -1.2258416414260864e-01</leafValues></_>
    <_>
      <internalNodes>
        0 -1 18893 5.7880869135260582e-03</internalNodes>
      <leafValues>
        -1.9141727685928345e-01 3.0778390169143677e-01</leafValues></_>
    <_>
      <internalNodes>
        0 -1 127314 -3.0504178721457720e-04</internalNodes>
      <leafValues>
        2.4839451909065247e-01 -1.7328332364559174e-01</leafValues></_>
    <_>
      <internalNodes>
        0 -1 240 1.1481621768325567e-03</internalNodes>
      <leafValues>
        1.4685557782649994e-01 -3.9312037825584412e-01</leafValues></_>
    <_>
      <internalNodes>
        0 -1 339 -1.2851396575570107e-02</internalNodes>
      <leafValues>
        3.6826097965240479e-01 -1.4952625334262848e-01</leafValues></_>
    <_>
      <internalNodes>
        0 -1 154828 -1.8297262489795685e-02</internalNodes>
      <leafValues>
        3.8334873318672180e-01 -1.1119873821735382e-01</leafValues></_>
    <_>
      <internalNodes>
        0 -1 37897 -1.4905298303347081e-04</internalNodes>
      <leafValues>
        -2.8992289304733276e-01 1.7002896964550018e-01</leafValues></_>
    <_>
      <internalNodes>
        0 -1 98174 1.1818835511803627e-02</internalNodes>
      <leafValues>
        -1.0761540383100510e-01 4.4355407357215881e-01</leafValues></_>
    <_>
      <internalNodes>
        0 -1 37405 -2.1833555772900581e-02</internalNodes>
      <leafValues>
        2.2780449688434601e-01 -1.9723311066627502e-01</leafValues></_>
    <_>
      <internalNodes>
        0 -1 5833 -5.3797592408955097e-04</internalNodes>
      <leafValues>
        -6.3583618402481079e-01 8.4588557481765747e-02</leafValues></_>
    <_>
      <internalNodes>
        0 -1 136143 1.2079734733561054e-04</internalNodes>
      <leafValues>
        -1.6834524273872375e-01 2.6501360535621643e-01</leafValues></_>
    <_>
      <internalNodes>
        0 -1 135058 -7.1179773658514023e-04</internalNodes>
      <leafValues>
        3.3056393265724182e-01 -1.8082068860530853e-01</leafValues></_>
    <_>
      <internalNodes>
        0 -1 162322 2.7634628349915147e-04</internalNodes>
      <leafValues>
        8.9515365660190582e-02 -5.0360053777694702e-01</leafValues></_>
    <_>
      <internalNodes>
        0 -1 93680 -3.8979953387752175e-04</internalNodes>
      <leafValues>
        2.2883154451847076e-01 -1.7212663590908051e-01</leafValues></_>
    <_>
      <internalNodes>
        0 -1 159736 1.4721116167493165e-04</internalNodes>
      <leafValues>
        9.5560118556022644e-02 -4.5371815562248230e-01</leafValues></_>
    <_>
      <internalNodes>
        0 -1 124261 2.0698017033282667e-04</internalNodes>
      <leafValues>
        -1.7326018214225769e-01 2.8248670697212219e-01</leafValues></_></weakClassifiers></stage11>
</opencv_storage>
