<?xml version="1.0"?>
<opencv_storage>
<stage13>
  <maxWeakCount>30</maxWeakCount>
  <stageThreshold>-1.3317652940750122e+00</stageThreshold>
  <weakClassifiers>
    <_>
      <internalNodes>
        0 -1 139192 -9.0974923223257065e-03</internalNodes>
      <leafValues>
        -5.7989227771759033e-01 -8.7866105139255524e-02</leafValues></_>
    <_>
      <internalNodes>
        0 -1 162116 5.6677730754017830e-03</internalNodes>
      <leafValues>
        3.5611987113952637e-02 -4.6578812599182129e-01</leafValues></_>
    <_>
      <internalNodes>
        0 -1 13296 -6.1810296028852463e-04</internalNodes>
      <leafValues>
        -5.9073787927627563e-01 5.6388352066278458e-02</leafValues></_>
    <_>
      <internalNodes>
        0 -1 94973 -1.7109721899032593e-02</internalNodes>
      <leafValues>
        -7.3718982934951782e-01 8.1259615719318390e-02</leafValues></_>
    <_>
      <internalNodes>
        0 -1 151878 6.2976037152111530e-03</internalNodes>
      <leafValues>
        1.3040713965892792e-02 -9.4576644897460938e-01</leafValues></_>
    <_>
      <internalNodes>
        0 -1 157601 1.5462024020962417e-04</internalNodes>
      <leafValues>
        9.6179053187370300e-02 -3.5385695099830627e-01</leafValues></_>
    <_>
      <internalNodes>
        0 -1 158058 -4.8467844724655151e-02</internalNodes>
      <leafValues>
        6.0936444997787476e-01 -6.2012355774641037e-02</leafValues></_>
    <_>
      <internalNodes>
        0 -1 17530 8.1333816051483154e-02</internalNodes>
      <leafValues>
        -5.8659054338932037e-02 4.6920821070671082e-01</leafValues></_>
    <_>
      <internalNodes>
        0 -1 153292 2.9853656888008118e-02</internalNodes>
      <leafValues>
        -8.7391585111618042e-02 4.2157340049743652e-01</leafValues></_>
    <_>
      <internalNodes>
        0 -1 134536 -6.2628716230392456e-02</internalNodes>
      <leafValues>
        1.8557809293270111e-01 -1.7049722373485565e-01</leafValues></_>
    <_>
      <internalNodes>
        0 -1 127239 5.6917384266853333e-02</internalNodes>
      <leafValues>
        -9.5709815621376038e-02 4.3915906548500061e-01</leafValues></_>
    <_>
      <internalNodes>
        0 -1 48539 6.7275818437337875e-03</internalNodes>
      <leafValues>
        -1.6792915761470795e-01 2.0659928023815155e-01</leafValues></_>
    <_>
      <internalNodes>
        0 -1 81080 -2.4163734633475542e-03</internalNodes>
      <leafValues>
        -3.5355421900749207e-01 1.0126028954982758e-01</leafValues></_>
    <_>
      <internalNodes>
        0 -1 38540 4.4023096561431885e-03</internalNodes>
      <leafValues>
        1.0147596895694733e-01 -3.8750943541526794e-01</leafValues></_>
    <_>
      <internalNodes>
        0 -1 116993 -1.7251897952519357e-04</internalNodes>
      <leafValues>
        2.7921381592750549e-01 -1.4470000565052032e-01</leafValues></_>
    <_>
      <internalNodes>
        0 -1 117002 -4.2749504791572690e-04</internalNodes>
      <leafValues>
        2.7009025216102600e-01 -1.5194490551948547e-01</leafValues></_>
    <_>
      <internalNodes>
        0 -1 13004 1.4440724044106901e-04</internalNodes>
      <leafValues>
        9.3148075044155121e-02 -3.6890888214111328e-01</leafValues></_>
    <_>
      <internalNodes>
        0 -1 118625 1.4711792755406350e-04</internalNodes>
      <leafValues>
        -1.3622587919235229e-01 2.5510376691818237e-01</leafValues></_>
    <_>
      <internalNodes>
        0 -1 118625 -1.1660415475489572e-04</internalNodes>
      <leafValues>
        2.4041427671909332e-01 -1.8373551964759827e-01</leafValues></_>
    <_>
      <internalNodes>
        0 -1 57199 -1.6886231303215027e-01</internalNodes>
      <leafValues>
        2.1134866774082184e-01 -1.6322989761829376e-01</leafValues></_>
    <_>
      <internalNodes>
        0 -1 424 -8.3981771022081375e-03</internalNodes>
      <leafValues>
        2.7125868201255798e-01 -1.4453376829624176e-01</leafValues></_>
    <_>
      <internalNodes>
        0 -1 6760 -3.6844588816165924e-02</internalNodes>
      <leafValues>
        5.6618064641952515e-01 -5.8051209896802902e-02</leafValues></_>
    <_>
      <internalNodes>
        0 -1 88296 -1.1507709859870374e-04</internalNodes>
      <leafValues>
        1.9300316274166107e-01 -1.8225494027137756e-01</leafValues></_>
    <_>
      <internalNodes>
        0 -1 1043 -5.0266122817993164e-01</internalNodes>
      <leafValues>
        -7.0843684673309326e-01 5.3307320922613144e-02</leafValues></_>
    <_>
      <internalNodes>
        0 -1 19494 4.9326464533805847e-02</internalNodes>
      <leafValues>
        3.1928934156894684e-02 -8.1825256347656250e-01</leafValues></_>
    <_>
      <internalNodes>
        0 -1 8738 3.9967969059944153e-02</internalNodes>
      <leafValues>
        2.5594335049390793e-02 -9.0688049793243408e-01</leafValues></_>
    <_>
      <internalNodes>
        0 -1 12532 1.4164624735713005e-04</internalNodes>
      <leafValues>
        7.8406944870948792e-02 -3.6640319228172302e-01</leafValues></_>
    <_>
      <internalNodes>
        0 -1 138305 -8.1730179954320192e-04</internalNodes>
      <leafValues>
        2.7303522825241089e-01 -1.2131734192371368e-01</leafValues></_>
    <_>
      <internalNodes>
        0 -1 1179 5.7646678760647774e-04</internalNodes>
      <leafValues>
        7.7098935842514038e-02 -4.1654172539710999e-01</leafValues></_>
    <_>
      <internalNodes>
        0 -1 98341 -5.0740398000925779e-04</internalNodes>
      <leafValues>
        1.4203612506389618e-01 -2.2722865641117096e-01</leafValues></_></weakClassifiers></stage13>
</opencv_storage>
