<?xml version="1.0"?>
<opencv_storage>
<cascade>
  <stageType>BOOST</stageType>
  <featureType>HAAR</featureType>
  <height>24</height>
  <width>24</width>
  <stageParams>
    <boostType>GAB</boostType>
    <minHitRate>9.9500000476837158e-01</minHitRate>
    <maxFalseAlarm>5.0000000000000000e-01</maxFalseAlarm>
    <weightTrimRate>9.4999998807907104e-01</weightTrimRate>
    <maxDepth>1</maxDepth>
    <maxWeakCount>100</maxWeakCount></stageParams>
  <featureParams>
    <maxCatCount>0</maxCatCount>
    <featSize>1</featSize>
    <mode>BASIC</mode></featureParams>
  <stageNum>11</stageNum>
  <stages>
    <!-- stage 0 -->
    <_>
      <maxWeakCount>2</maxWeakCount>
      <stageThreshold>-4.6310804784297943e-02</stageThreshold>
      <weakClassifiers>
        <_>
          <internalNodes>
            0 -1 20 1.7148870229721069e-01</internalNodes>
          <leafValues>
            -9.9000000953674316e-01 9.3333333730697632e-01</leafValues></_>
        <_>
          <internalNodes>
            0 -1 10 -6.5177232027053833e-02</internalNodes>
          <leafValues>
            -9.7964411973953247e-01 1.</leafValues></_></weakClassifiers></_>
    <!-- stage 1 -->
    <_>
      <maxWeakCount>2</maxWeakCount>
      <stageThreshold>-1.9616423547267914e-01</stageThreshold>
      <weakClassifiers>
        <_>
          <internalNodes>
            0 -1 1 -2.0386038720607758e-01</internalNodes>
          <leafValues>
            1. -9.5121949911117554e-01</leafValues></_>
        <_>
          <internalNodes>
            0 -1 4 -8.5602767765522003e-02</internalNodes>
          <leafValues>
            7.5505530834197998e-01 -1.</leafValues></_></weakClassifiers></_>
    <!-- stage 2 -->
    <_>
      <maxWeakCount>3</maxWeakCount>
      <stageThreshold>-1.1530566215515137e+00</stageThreshold>
      <weakClassifiers>
        <_>
          <internalNodes>
            0 -1 12 -1.6972010955214500e-02</internalNodes>
          <leafValues>
            6.0000002384185791e-01 -9.0243899822235107e-01</leafValues></_>
        <_>
          <internalNodes>
            0 -1 22 6.6429048776626587e-02</internalNodes>
          <leafValues>
            -8.4657937288284302e-01 6.7039793729782104e-01</leafValues></_>
        <_>
          <internalNodes>
            0 -1 7 4.1566411964595318e-03</internalNodes>
          <leafValues>
            -8.6725211143493652e-01 5.9596174955368042e-01</leafValues></_></weakClassifiers></_>
    <!-- stage 3 -->
    <_>
      <maxWeakCount>3</maxWeakCount>
      <stageThreshold>-1.2291164398193359e+00</stageThreshold>
      <weakClassifiers>
        <_>
          <internalNodes>
            0 -1 27 -1.2338364496827126e-02</internalNodes>
          <leafValues>
            3.7142857909202576e-01 -9.3846154212951660e-01</leafValues></_>
        <_>
          <internalNodes>
            0 -1 8 -2.4362968280911446e-02</internalNodes>
          <leafValues>
            6.2356126308441162e-01 -8.1212121248245239e-01</leafValues></_>
        <_>
          <internalNodes>
            0 -1 21 4.3082972988486290e-03</internalNodes>
          <leafValues>
            -9.1421622037887573e-01 5.5485773086547852e-01</leafValues></_></weakClassifiers></_>
    <!-- stage 4 -->
    <_>
      <maxWeakCount>3</maxWeakCount>
      <stageThreshold>-1.2863427400588989e+00</stageThreshold>
      <weakClassifiers>
        <_>
          <internalNodes>
            0 -1 11 -9.6181154251098633e-02</internalNodes>
          <leafValues>
            -9.1176468133926392e-01 6.1538463830947876e-01</leafValues></_>
        <_>
          <internalNodes>
            0 -1 5 -2.3073709011077881e-01</internalNodes>
          <leafValues>
            5.2577430009841919e-01 -8.4612321853637695e-01</leafValues></_>
        <_>
          <internalNodes>
            0 -1 19 3.2756455242633820e-02</internalNodes>
          <leafValues>
            -9.0035235881805420e-01 5.7100260257720947e-01</leafValues></_></weakClassifiers></_>
    <!-- stage 5 -->
    <_>
      <maxWeakCount>3</maxWeakCount>
      <stageThreshold>-1.0783324241638184e+00</stageThreshold>
      <weakClassifiers>
        <_>
          <internalNodes>
            0 -1 15 5.0686053931713104e-02</internalNodes>
          <leafValues>
            -8.9054727554321289e-01 3.1034481525421143e-01</leafValues></_>
        <_>
          <internalNodes>
            0 -1 6 -3.5806325078010559e-01</internalNodes>
          <leafValues>
            8.3067852258682251e-01 -6.5694785118103027e-01</leafValues></_>
        <_>
          <internalNodes>
            0 -1 14 -1.2374388985335827e-02</internalNodes>
          <leafValues>
            4.6916261315345764e-01 -9.8182737827301025e-01</leafValues></_></weakClassifiers></_>
    <!-- stage 6 -->
    <_>
      <maxWeakCount>3</maxWeakCount>
      <stageThreshold>-1.2398333549499512e+00</stageThreshold>
      <weakClassifiers>
        <_>
          <internalNodes>
            0 -1 16 2.2800324857234955e-01</internalNodes>
          <leafValues>
            -9.1304349899291992e-01 8.2608693838119507e-01</leafValues></_>
        <_>
          <internalNodes>
            0 -1 2 -7.1700304746627808e-02</internalNodes>
          <leafValues>
            4.6984258294105530e-01 -9.0217936038970947e-01</leafValues></_>
        <_>
          <internalNodes>
            0 -1 18 1.0731661319732666e-01</internalNodes>
          <leafValues>
            -7.9663252830505371e-01 6.4402306079864502e-01</leafValues></_></weakClassifiers></_>
    <!-- stage 7 -->
    <_>
      <maxWeakCount>2</maxWeakCount>
      <stageThreshold>-4.8196804523468018e-01</stageThreshold>
      <weakClassifiers>
        <_>
          <internalNodes>
            0 -1 24 3.6194711923599243e-02</internalNodes>
          <leafValues>
            -8.3255815505981445e-01 6.0000002384185791e-01</leafValues></_>
        <_>
          <internalNodes>
            0 -1 7 5.4194019176065922e-03</internalNodes>
          <leafValues>
            -9.2393028736114502e-01 3.5059010982513428e-01</leafValues></_></weakClassifiers></_>
    <!-- stage 8 -->
    <_>
      <maxWeakCount>4</maxWeakCount>
      <stageThreshold>-1.2603691816329956e+00</stageThreshold>
      <weakClassifiers>
        <_>
          <internalNodes>
            0 -1 17 3.6203762888908386e-01</internalNodes>
          <leafValues>
            -8.5436892509460449e-01 2.5000000000000000e-01</leafValues></_>
        <_>
          <internalNodes>
            0 -1 28 1.6449913382530212e-02</internalNodes>
          <leafValues>
            -9.2810314893722534e-01 1.9842296838760376e-01</leafValues></_>
        <_>
          <internalNodes>
            0 -1 9 -3.9017267990857363e-03</internalNodes>
          <leafValues>
            -8.9124077558517456e-01 4.1126349568367004e-01</leafValues></_>
        <_>
          <internalNodes>
            0 -1 25 3.4704709833022207e-05</internalNodes>
          <leafValues>
            -1. 2.8681761026382446e-01</leafValues></_></weakClassifiers></_>
    <!-- stage 9 -->
    <_>
      <maxWeakCount>3</maxWeakCount>
      <stageThreshold>-1.2359533309936523e+00</stageThreshold>
      <weakClassifiers>
        <_>
          <internalNodes>
            0 -1 13 1.9973526895046234e-01</internalNodes>
          <leafValues>
            -8.6729860305786133e-01 6.8421053886413574e-01</leafValues></_>
        <_>
          <internalNodes>
            0 -1 26 5.0860270857810974e-02</internalNodes>
          <leafValues>
            -8.0825483798980713e-01 5.1834160089492798e-01</leafValues></_>
        <_>
          <internalNodes>
            0 -1 23 6.6690039820969105e-03</internalNodes>
          <leafValues>
            -8.1460660696029663e-01 4.3960011005401611e-01</leafValues></_></weakClassifiers></_>
    <!-- stage 10 -->
    <_>
      <maxWeakCount>2</maxWeakCount>
      <stageThreshold>-8.6405700445175171e-01</stageThreshold>
      <weakClassifiers>
        <_>
          <internalNodes>
            0 -1 0 -2.8107744455337524e-01</internalNodes>
          <leafValues>
            1.0526315867900848e-01 -9.0625000000000000e-01</leafValues></_>
        <_>
          <internalNodes>
            0 -1 3 -1.6620258975308388e-05</internalNodes>
          <leafValues>
            6.9394901394844055e-02 -9.6932017803192139e-01</leafValues></_></weakClassifiers></_></stages>
  <features>
    <_>
      <rects>
        <_>
          0 0 14 14 -1.</_>
        <_>
          7 0 7 14 2.</_></rects>
      <tilted>0</tilted></_>
    <_>
      <rects>
        <_>
          0 2 14 11 -1.</_>
        <_>
          7 2 7 11 2.</_></rects>
      <tilted>0</tilted></_>
    <_>
      <rects>
        <_>
          0 15 10 9 -1.</_>
        <_>
          5 15 5 9 2.</_></rects>
      <tilted>0</tilted></_>
    <_>
      <rects>
        <_>
          0 22 2 2 -1.</_>
        <_>
          1 22 1 2 2.</_></rects>
      <tilted>0</tilted></_>
    <_>
      <rects>
        <_>
          1 1 14 8 -1.</_>
        <_>
          8 1 7 8 2.</_></rects>
      <tilted>0</tilted></_>
    <_>
      <rects>
        <_>
          2 0 18 24 -1.</_>
        <_>
          2 12 18 12 2.</_></rects>
      <tilted>0</tilted></_>
    <_>
      <rects>
        <_>
          2 2 14 17 -1.</_>
        <_>
          9 2 7 17 2.</_></rects>
      <tilted>0</tilted></_>
    <_>
      <rects>
        <_>
          2 22 9 2 -1.</_>
        <_>
          2 23 9 1 2.</_></rects>
      <tilted>0</tilted></_>
    <_>
      <rects>
        <_>
          4 8 2 16 -1.</_>
        <_>
          4 16 2 8 2.</_></rects>
      <tilted>0</tilted></_>
    <_>
      <rects>
        <_>
          5 17 3 1 -1.</_>
        <_>
          6 17 1 1 2.</_></rects>
      <tilted>0</tilted></_>
    <_>
      <rects>
        <_>
          7 7 4 15 -1.</_>
        <_>
          7 12 4 5 2.</_></rects>
      <tilted>0</tilted></_>
    <_>
      <rects>
        <_>
          8 6 9 13 -1.</_>
        <_>
          11 6 3 13 2.</_></rects>
      <tilted>0</tilted></_>
    <_>
      <rects>
        <_>
          9 0 4 4 -1.</_>
        <_>
          9 2 4 2 2.</_></rects>
      <tilted>0</tilted></_>
    <_>
      <rects>
        <_>
          9 0 12 14 -1.</_>
        <_>
          15 0 6 14 2.</_></rects>
      <tilted>0</tilted></_>
    <_>
      <rects>
        <_>
          9 0 8 4 -1.</_>
        <_>
          9 2 8 2 2.</_></rects>
      <tilted>0</tilted></_>
    <_>
      <rects>
        <_>
          9 2 12 3 -1.</_>
        <_>
          15 2 6 3 2.</_></rects>
      <tilted>0</tilted></_>
    <_>
      <rects>
        <_>
          9 2 14 11 -1.</_>
        <_>
          16 2 7 11 2.</_></rects>
      <tilted>0</tilted></_>
    <_>
      <rects>
        <_>
          10 2 14 15 -1.</_>
        <_>
          17 2 7 15 2.</_></rects>
      <tilted>0</tilted></_>
    <_>
      <rects>
        <_>
          10 3 12 8 -1.</_>
        <_>
          16 3 6 8 2.</_></rects>
      <tilted>0</tilted></_>
    <_>
      <rects>
        <_>
          12 0 12 10 -1.</_>
        <_>
          12 0 6 5 2.</_>
        <_>
          18 5 6 5 2.</_></rects>
      <tilted>0</tilted></_>
    <_>
      <rects>
        <_>
          12 2 12 22 -1.</_>
        <_>
          18 2 6 22 2.</_></rects>
      <tilted>0</tilted></_>
    <_>
      <rects>
        <_>
          13 22 9 2 -1.</_>
        <_>
          13 23 9 1 2.</_></rects>
      <tilted>0</tilted></_>
    <_>
      <rects>
        <_>
          14 10 8 7 -1.</_>
        <_>
          18 10 4 7 2.</_></rects>
      <tilted>0</tilted></_>
    <_>
      <rects>
        <_>
          15 1 8 6 -1.</_>
        <_>
          15 1 4 3 2.</_>
        <_>
          19 4 4 3 2.</_></rects>
      <tilted>0</tilted></_>
    <_>
      <rects>
        <_>
          15 4 4 5 -1.</_>
        <_>
          17 4 2 5 2.</_></rects>
      <tilted>0</tilted></_>
    <_>
      <rects>
        <_>
          15 23 4 1 -1.</_>
        <_>
          17 23 2 1 2.</_></rects>
      <tilted>0</tilted></_>
    <_>
      <rects>
        <_>
          16 5 4 18 -1.</_>
        <_>
          18 5 2 18 2.</_></rects>
      <tilted>0</tilted></_>
    <_>
      <rects>
        <_>
          18 3 1 20 -1.</_>
        <_>
          18 13 1 10 2.</_></rects>
      <tilted>0</tilted></_>
    <_>
      <rects>
        <_>
          18 16 6 7 -1.</_>
        <_>
          21 16 3 7 2.</_></rects>
      <tilted>0</tilted></_></features></cascade>
</opencv_storage>
