<?xml version="1.0"?>
<opencv_storage>
<cascade>
  <stageType>BOOST</stageType>
  <featureType>HAAR</featureType>
  <height>24</height>
  <width>24</width>
  <stageParams>
    <boostType>GAB</boostType>
    <minHitRate>9.9500000476837158e-01</minHitRate>
    <maxFalseAlarm>5.0000000000000000e-01</maxFalseAlarm>
    <weightTrimRate>9.4999999999999996e-01</weightTrimRate>
    <maxDepth>1</maxDepth>
    <maxWeakCount>100</maxWeakCount></stageParams>
  <featureParams>
    <maxCatCount>0</maxCatCount>
    <featSize>1</featSize>
    <mode>BASIC</mode></featureParams>
  <stageNum>15</stageNum>
  <stages>
    <!-- stage 0 -->
    <_>
      <maxWeakCount>4</maxWeakCount>
      <stageThreshold>-1.9004735946655273e+00</stageThreshold>
      <weakClassifiers>
        <_>
          <internalNodes>
            0 -1 37 -5.1799811422824860e-02</internalNodes>
          <leafValues>
            8.6861312389373779e-01 -9.4457274675369263e-01</leafValues></_>
        <_>
          <internalNodes>
            0 -1 42 4.0398702025413513e-02</internalNodes>
          <leafValues>
            -8.9827477931976318e-01 7.4712079763412476e-01</leafValues></_>
        <_>
          <internalNodes>
            0 -1 56 -1.2133602052927017e-02</internalNodes>
          <leafValues>
            7.3563617467880249e-01 -7.5436007976531982e-01</leafValues></_>
        <_>
          <internalNodes>
            0 -1 11 7.5465543195605278e-03</internalNodes>
          <leafValues>
            -7.2112029790878296e-01 6.9673401117324829e-01</leafValues></_></weakClassifiers></_>
    <!-- stage 1 -->
    <_>
      <maxWeakCount>4</maxWeakCount>
      <stageThreshold>-1.8925811052322388e+00</stageThreshold>
      <weakClassifiers>
        <_>
          <internalNodes>
            0 -1 0 -8.7070703506469727e-02</internalNodes>
          <leafValues>
            6.2580645084381104e-01 -9.3253010511398315e-01</leafValues></_>
        <_>
          <internalNodes>
            0 -1 55 -1.8486153334379196e-02</internalNodes>
          <leafValues>
            6.9244021177291870e-01 -8.6038827896118164e-01</leafValues></_>
        <_>
          <internalNodes>
            0 -1 37 -6.3242599368095398e-02</internalNodes>
          <leafValues>
            7.9302692413330078e-01 -7.1900707483291626e-01</leafValues></_>
        <_>
          <internalNodes>
            0 -1 27 2.3644497618079185e-02</internalNodes>
          <leafValues>
            -8.7318480014801025e-01 6.1934441328048706e-01</leafValues></_></weakClassifiers></_>
    <!-- stage 2 -->
    <_>
      <maxWeakCount>4</maxWeakCount>
      <stageThreshold>-1.8402118682861328e+00</stageThreshold>
      <weakClassifiers>
        <_>
          <internalNodes>
            0 -1 46 9.5524247735738754e-03</internalNodes>
          <leafValues>
            -8.2212579250335693e-01 8.1651377677917480e-01</leafValues></_>
        <_>
          <internalNodes>
            0 -1 34 1.7452586442232132e-02</internalNodes>
          <leafValues>
            -7.0226299762725830e-01 7.9992455244064331e-01</leafValues></_>
        <_>
          <internalNodes>
            0 -1 1 -3.1218873336911201e-02</internalNodes>
          <leafValues>
            6.5893679857254028e-01 -7.9175478219985962e-01</leafValues></_>
        <_>
          <internalNodes>
            0 -1 32 -5.2580460906028748e-02</internalNodes>
          <leafValues>
            4.7593167424201965e-01 -7.9926234483718872e-01</leafValues></_></weakClassifiers></_>
    <!-- stage 3 -->
    <_>
      <maxWeakCount>3</maxWeakCount>
      <stageThreshold>-1.1708914041519165e+00</stageThreshold>
      <weakClassifiers>
        <_>
          <internalNodes>
            0 -1 45 1.6950815916061401e-02</internalNodes>
          <leafValues>
            -8.0590718984603882e-01 9.5833331346511841e-01</leafValues></_>
        <_>
          <internalNodes>
            0 -1 17 2.2778658196330070e-02</internalNodes>
          <leafValues>
            -7.9314839839935303e-01 5.5981004238128662e-01</leafValues></_>
        <_>
          <internalNodes>
            0 -1 9 -3.0990839004516602e-02</internalNodes>
          <leafValues>
            -9.3469417095184326e-01 4.2816412448883057e-01</leafValues></_></weakClassifiers></_>
    <!-- stage 4 -->
    <_>
      <maxWeakCount>3</maxWeakCount>
      <stageThreshold>-9.8513412475585938e-01</stageThreshold>
      <weakClassifiers>
        <_>
          <internalNodes>
            0 -1 5 7.3910285718739033e-03</internalNodes>
          <leafValues>
            -8.1974250078201294e-01 8.8461536169052124e-01</leafValues></_>
        <_>
          <internalNodes>
            0 -1 47 7.2937645018100739e-03</internalNodes>
          <leafValues>
            -6.6021978855133057e-01 8.5158860683441162e-01</leafValues></_>
        <_>
          <internalNodes>
            0 -1 13 -7.1699423715472221e-03</internalNodes>
          <leafValues>
            4.9482813477516174e-01 -9.5618808269500732e-01</leafValues></_></weakClassifiers></_>
    <!-- stage 5 -->
    <_>
      <maxWeakCount>5</maxWeakCount>
      <stageThreshold>-1.7747792005538940e+00</stageThreshold>
      <weakClassifiers>
        <_>
          <internalNodes>
            0 -1 31 4.0950275957584381e-02</internalNodes>
          <leafValues>
            -8.6666667461395264e-01 8.3333331346511841e-01</leafValues></_>
        <_>
          <internalNodes>
            0 -1 53 -2.8985764831304550e-02</internalNodes>
          <leafValues>
            7.2113007307052612e-01 -7.5472038984298706e-01</leafValues></_>
        <_>
          <internalNodes>
            0 -1 14 -1.8011569976806641e-01</internalNodes>
          <leafValues>
            5.4982042312622070e-01 -7.7381891012191772e-01</leafValues></_>
        <_>
          <internalNodes>
            0 -1 2 1.1306813394185156e-04</internalNodes>
          <leafValues>
            3.1021565198898315e-01 -1.</leafValues></_>
        <_>
          <internalNodes>
            0 -1 59 4.7078647185117006e-04</internalNodes>
          <leafValues>
            3.1021112203598022e-01 -9.7471761703491211e-01</leafValues></_></weakClassifiers></_>
    <!-- stage 6 -->
    <_>
      <maxWeakCount>4</maxWeakCount>
      <stageThreshold>-1.8083055019378662e+00</stageThreshold>
      <weakClassifiers>
        <_>
          <internalNodes>
            0 -1 30 -1.7413172125816345e-01</internalNodes>
          <leafValues>
            5.5263155698776245e-01 -8.9473682641983032e-01</leafValues></_>
        <_>
          <internalNodes>
            0 -1 61 -1.2493882328271866e-02</internalNodes>
          <leafValues>
            9.2335748672485352e-01 -6.2739074230194092e-01</leafValues></_>
        <_>
          <internalNodes>
            0 -1 38 -2.3556165397167206e-02</internalNodes>
          <leafValues>
            5.9279292821884155e-01 -6.8855857849121094e-01</leafValues></_>
        <_>
          <internalNodes>
            0 -1 50 -1.6509526968002319e-01</internalNodes>
          <leafValues>
            4.0238061547279358e-01 -9.3144094944000244e-01</leafValues></_></weakClassifiers></_>
    <!-- stage 7 -->
    <_>
      <maxWeakCount>4</maxWeakCount>
      <stageThreshold>-1.7842580080032349e+00</stageThreshold>
      <weakClassifiers>
        <_>
          <internalNodes>
            0 -1 25 -8.7048020213842392e-03</internalNodes>
          <leafValues>
            7.4358975887298584e-01 -8.3222955465316772e-01</leafValues></_>
        <_>
          <internalNodes>
            0 -1 35 1.6658067703247070e-02</internalNodes>
          <leafValues>
            -7.6912683248519897e-01 6.8390077352523804e-01</leafValues></_>
        <_>
          <internalNodes>
            0 -1 41 -3.8981646299362183e-02</internalNodes>
          <leafValues>
            6.9204956293106079e-01 -6.5600216388702393e-01</leafValues></_>
        <_>
          <internalNodes>
            0 -1 60 -3.9638915040995926e-05</internalNodes>
          <leafValues>
            -9.2091625928878784e-01 4.7310060262680054e-01</leafValues></_></weakClassifiers></_>
    <!-- stage 8 -->
    <_>
      <maxWeakCount>4</maxWeakCount>
      <stageThreshold>-1.9333640336990356e+00</stageThreshold>
      <weakClassifiers>
        <_>
          <internalNodes>
            0 -1 22 1.8537867814302444e-02</internalNodes>
          <leafValues>
            -8.6425340175628662e-01 7.1875000000000000e-01</leafValues></_>
        <_>
          <internalNodes>
            0 -1 40 -3.3976025879383087e-02</internalNodes>
          <leafValues>
            6.2711989879608154e-01 -8.3411395549774170e-01</leafValues></_>
        <_>
          <internalNodes>
            0 -1 7 -9.3238102272152901e-03</internalNodes>
          <leafValues>
            5.6545716524124146e-01 -7.3463273048400879e-01</leafValues></_>
        <_>
          <internalNodes>
            0 -1 18 1.6254279762506485e-02</internalNodes>
          <leafValues>
            -7.9194062948226929e-01 4.9963605403900146e-01</leafValues></_></weakClassifiers></_>
    <!-- stage 9 -->
    <_>
      <maxWeakCount>5</maxWeakCount>
      <stageThreshold>-1.4743601083755493e+00</stageThreshold>
      <weakClassifiers>
        <_>
          <internalNodes>
            0 -1 12 -4.5031961053609848e-03</internalNodes>
          <leafValues>
            5.5405408143997192e-01 -8.8151657581329346e-01</leafValues></_>
        <_>
          <internalNodes>
            0 -1 39 -2.7654392644762993e-02</internalNodes>
          <leafValues>
            6.3969039916992188e-01 -7.6547652482986450e-01</leafValues></_>
        <_>
          <internalNodes>
            0 -1 57 -5.7413126341998577e-03</internalNodes>
          <leafValues>
            5.6381338834762573e-01 -7.2776806354522705e-01</leafValues></_>
        <_>
          <internalNodes>
            0 -1 29 -1.3687124848365784e-01</internalNodes>
          <leafValues>
            -7.7789115905761719e-01 4.9086266756057739e-01</leafValues></_>
        <_>
          <internalNodes>
            0 -1 52 -5.2352228522067890e-05</internalNodes>
          <leafValues>
            -9.0017509460449219e-01 4.0953841805458069e-01</leafValues></_></weakClassifiers></_>
    <!-- stage 10 -->
    <_>
      <maxWeakCount>4</maxWeakCount>
      <stageThreshold>-2.0104448795318604e+00</stageThreshold>
      <weakClassifiers>
        <_>
          <internalNodes>
            0 -1 4 1.0870940983295441e-02</internalNodes>
          <leafValues>
            -8.1497794389724731e-01 6.8965518474578857e-01</leafValues></_>
        <_>
          <internalNodes>
            0 -1 21 1.3658948242664337e-02</internalNodes>
          <leafValues>
            -7.8626728057861328e-01 5.2784055471420288e-01</leafValues></_>
        <_>
          <internalNodes>
            0 -1 19 -2.3984593152999878e-01</internalNodes>
          <leafValues>
            -9.5534986257553101e-01 4.1024249792098999e-01</leafValues></_>
        <_>
          <internalNodes>
            0 -1 58 -1.2916575185954571e-02</internalNodes>
          <leafValues>
            4.5394012331962585e-01 -8.1944215297698975e-01</leafValues></_></weakClassifiers></_>
    <!-- stage 11 -->
    <_>
      <maxWeakCount>5</maxWeakCount>
      <stageThreshold>-1.4154961109161377e+00</stageThreshold>
      <weakClassifiers>
        <_>
          <internalNodes>
            0 -1 62 1.1168213561177254e-02</internalNodes>
          <leafValues>
            -7.7215188741683960e-01 7.9166668653488159e-01</leafValues></_>
        <_>
          <internalNodes>
            0 -1 26 -5.5275526829063892e-03</internalNodes>
          <leafValues>
            5.6041556596755981e-01 -6.8133854866027832e-01</leafValues></_>
        <_>
          <internalNodes>
            0 -1 20 6.4860833808779716e-03</internalNodes>
          <leafValues>
            -6.1581510305404663e-01 5.7588869333267212e-01</leafValues></_>
        <_>
          <internalNodes>
            0 -1 36 8.5985375335440040e-05</internalNodes>
          <leafValues>
            3.7302261590957642e-01 -9.5610475540161133e-01</leafValues></_>
        <_>
          <internalNodes>
            0 -1 60 6.9051733589731157e-05</internalNodes>
          <leafValues>
            3.4956064820289612e-01 -9.1091692447662354e-01</leafValues></_></weakClassifiers></_>
    <!-- stage 12 -->
    <_>
      <maxWeakCount>6</maxWeakCount>
      <stageThreshold>-1.8524612188339233e+00</stageThreshold>
      <weakClassifiers>
        <_>
          <internalNodes>
            0 -1 54 -1.8421715125441551e-02</internalNodes>
          <leafValues>
            6.2831860780715942e-01 -7.8993433713912964e-01</leafValues></_>
        <_>
          <internalNodes>
            0 -1 15 4.0341861546039581e-02</internalNodes>
          <leafValues>
            -6.4976710081100464e-01 7.0713537931442261e-01</leafValues></_>
        <_>
          <internalNodes>
            0 -1 44 -3.5541381221264601e-03</internalNodes>
          <leafValues>
            5.9957480430603027e-01 -6.9619864225387573e-01</leafValues></_>
        <_>
          <internalNodes>
            0 -1 28 1.1233964934945107e-02</internalNodes>
          <leafValues>
            -4.9402746558189392e-01 6.1596071720123291e-01</leafValues></_>
        <_>
          <internalNodes>
            0 -1 49 -1.6957279513007961e-05</internalNodes>
          <leafValues>
            4.4180151820182800e-01 -6.7116385698318481e-01</leafValues></_>
        <_>
          <internalNodes>
            0 -1 51 -3.8739141018595546e-05</internalNodes>
          <leafValues>
            -8.6250191926956177e-01 3.3566480875015259e-01</leafValues></_></weakClassifiers></_>
    <!-- stage 13 -->
    <_>
      <maxWeakCount>5</maxWeakCount>
      <stageThreshold>-2.2965221405029297e+00</stageThreshold>
      <weakClassifiers>
        <_>
          <internalNodes>
            0 -1 6 -1.3724727556109428e-02</internalNodes>
          <leafValues>
            8.0645161867141724e-01 -7.6519918441772461e-01</leafValues></_>
        <_>
          <internalNodes>
            0 -1 33 -2.5877477601170540e-02</internalNodes>
          <leafValues>
            3.5843411087989807e-01 -8.3346247673034668e-01</leafValues></_>
        <_>
          <internalNodes>
            0 -1 36 -3.3586606150493026e-05</internalNodes>
          <leafValues>
            -6.7688459157943726e-01 4.7963413596153259e-01</leafValues></_>
        <_>
          <internalNodes>
            0 -1 16 3.8026035763323307e-03</internalNodes>
          <leafValues>
            -6.2419265508651733e-01 6.1705654859542847e-01</leafValues></_>
        <_>
          <internalNodes>
            0 -1 24 4.8139579594135284e-03</internalNodes>
          <leafValues>
            -6.3803249597549438e-01 5.0774782896041870e-01</leafValues></_></weakClassifiers></_>
    <!-- stage 14 -->
    <_>
      <maxWeakCount>6</maxWeakCount>
      <stageThreshold>-1.7450803518295288e+00</stageThreshold>
      <weakClassifiers>
        <_>
          <internalNodes>
            0 -1 23 2.0262885838747025e-02</internalNodes>
          <leafValues>
            -7.8666669130325317e-01 5.3333336114883423e-01</leafValues></_>
        <_>
          <internalNodes>
            0 -1 48 3.9851382374763489e-02</internalNodes>
          <leafValues>
            -8.5217595100402832e-01 4.0413463115692139e-01</leafValues></_>
        <_>
          <internalNodes>
            0 -1 3 -2.4955518543720245e-02</internalNodes>
          <leafValues>
            4.0282791852951050e-01 -7.5028932094573975e-01</leafValues></_>
        <_>
          <internalNodes>
            0 -1 43 -2.2202869877219200e-02</internalNodes>
          <leafValues>
            6.7922472953796387e-01 -5.0714230537414551e-01</leafValues></_>
        <_>
          <internalNodes>
            0 -1 8 -1.4557967915607151e-05</internalNodes>
          <leafValues>
            -9.6234697103500366e-01 3.7925311923027039e-01</leafValues></_>
        <_>
          <internalNodes>
            0 -1 10 3.8155415095388889e-03</internalNodes>
          <leafValues>
            -4.8689630627632141e-01 7.7194076776504517e-01</leafValues></_></weakClassifiers></_></stages>
  <features>
    <_>
      <rects>
        <_>
          0 0 6 18 -1.</_>
        <_>
          0 9 6 9 2.</_></rects>
      <tilted>0</tilted></_>
    <_>
      <rects>
        <_>
          0 1 2 20 -1.</_>
        <_>
          0 11 2 10 2.</_></rects>
      <tilted>0</tilted></_>
    <_>
      <rects>
        <_>
          0 1 10 10 -1.</_>
        <_>
          5 1 5 10 2.</_></rects>
      <tilted>0</tilted></_>
    <_>
      <rects>
        <_>
          0 4 3 12 -1.</_>
        <_>
          0 10 3 6 2.</_></rects>
      <tilted>0</tilted></_>
    <_>
      <rects>
        <_>
          0 9 2 10 -1.</_>
        <_>
          0 9 1 5 2.</_>
        <_>
          1 14 1 5 2.</_></rects>
      <tilted>0</tilted></_>
    <_>
      <rects>
        <_>
          0 14 2 4 -1.</_>
        <_>
          1 14 1 4 2.</_></rects>
      <tilted>0</tilted></_>
    <_>
      <rects>
        <_>
          0 14 2 8 -1.</_>
        <_>
          0 14 1 4 2.</_>
        <_>
          1 18 1 4 2.</_></rects>
      <tilted>0</tilted></_>
    <_>
      <rects>
        <_>
          0 14 4 10 -1.</_>
        <_>
          0 14 2 5 2.</_>
        <_>
          2 19 2 5 2.</_></rects>
      <tilted>0</tilted></_>
    <_>
      <rects>
        <_>
          1 0 2 6 -1.</_>
        <_>
          1 0 1 3 2.</_>
        <_>
          2 3 1 3 2.</_></rects>
      <tilted>0</tilted></_>
    <_>
      <rects>
        <_>
          2 10 1 12 -1.</_>
        <_>
          2 14 1 4 2.</_></rects>
      <tilted>0</tilted></_>
    <_>
      <rects>
        <_>
          2 10 6 2 -1.</_>
        <_>
          2 11 6 1 2.</_></rects>
      <tilted>0</tilted></_>
    <_>
      <rects>
        <_>
          3 10 5 4 -1.</_>
        <_>
          3 12 5 2 2.</_></rects>
      <tilted>0</tilted></_>
    <_>
      <rects>
        <_>
          3 13 2 5 -1.</_>
        <_>
          4 13 1 5 2.</_></rects>
      <tilted>0</tilted></_>
    <_>
      <rects>
        <_>
          4 0 3 1 -1.</_>
        <_>
          5 0 1 1 2.</_></rects>
      <tilted>0</tilted></_>
    <_>
      <rects>
        <_>
          4 0 20 18 -1.</_>
        <_>
          4 9 20 9 2.</_></rects>
      <tilted>0</tilted></_>
    <_>
      <rects>
        <_>
          4 15 11 6 -1.</_>
        <_>
          4 18 11 3 2.</_></rects>
      <tilted>0</tilted></_>
    <_>
      <rects>
        <_>
          5 7 4 4 -1.</_>
        <_>
          5 7 2 2 2.</_>
        <_>
          7 9 2 2 2.</_></rects>
      <tilted>0</tilted></_>
    <_>
      <rects>
        <_>
          5 14 6 10 -1.</_>
        <_>
          5 14 3 5 2.</_>
        <_>
          8 19 3 5 2.</_></rects>
      <tilted>0</tilted></_>
    <_>
      <rects>
        <_>
          5 18 11 6 -1.</_>
        <_>
          5 21 11 3 2.</_></rects>
      <tilted>0</tilted></_>
    <_>
      <rects>
        <_>
          6 8 15 6 -1.</_>
        <_>
          11 8 5 6 2.</_></rects>
      <tilted>0</tilted></_>
    <_>
      <rects>
        <_>
          6 12 6 2 -1.</_>
        <_>
          9 12 3 2 2.</_></rects>
      <tilted>0</tilted></_>
    <_>
      <rects>
        <_>
          6 14 4 10 -1.</_>
        <_>
          6 14 2 5 2.</_>
        <_>
          8 19 2 5 2.</_></rects>
      <tilted>0</tilted></_>
    <_>
      <rects>
        <_>
          6 15 4 8 -1.</_>
        <_>
          6 15 2 4 2.</_>
        <_>
          8 19 2 4 2.</_></rects>
      <tilted>0</tilted></_>
    <_>
      <rects>
        <_>
          6 17 4 6 -1.</_>
        <_>
          6 17 2 3 2.</_>
        <_>
          8 20 2 3 2.</_></rects>
      <tilted>0</tilted></_>
    <_>
      <rects>
        <_>
          6 20 7 4 -1.</_>
        <_>
          6 22 7 2 2.</_></rects>
      <tilted>0</tilted></_>
    <_>
      <rects>
        <_>
          7 13 2 6 -1.</_>
        <_>
          8 13 1 6 2.</_></rects>
      <tilted>0</tilted></_>
    <_>
      <rects>
        <_>
          7 14 2 5 -1.</_>
        <_>
          8 14 1 5 2.</_></rects>
      <tilted>0</tilted></_>
    <_>
      <rects>
        <_>
          7 16 10 8 -1.</_>
        <_>
          7 20 10 4 2.</_></rects>
      <tilted>0</tilted></_>
    <_>
      <rects>
        <_>
          8 2 4 8 -1.</_>
        <_>
          10 2 2 8 2.</_></rects>
      <tilted>0</tilted></_>
    <_>
      <rects>
        <_>
          8 4 4 15 -1.</_>
        <_>
          8 9 4 5 2.</_></rects>
      <tilted>0</tilted></_>
    <_>
      <rects>
        <_>
          8 9 4 15 -1.</_>
        <_>
          8 14 4 5 2.</_></rects>
      <tilted>0</tilted></_>
    <_>
      <rects>
        <_>
          8 15 4 8 -1.</_>
        <_>
          8 19 4 4 2.</_></rects>
      <tilted>0</tilted></_>
    <_>
      <rects>
        <_>
          9 0 13 12 -1.</_>
        <_>
          9 6 13 6 2.</_></rects>
      <tilted>0</tilted></_>
    <_>
      <rects>
        <_>
          10 1 8 9 -1.</_>
        <_>
          14 1 4 9 2.</_></rects>
      <tilted>0</tilted></_>
    <_>
      <rects>
        <_>
          10 14 4 4 -1.</_>
        <_>
          12 14 2 4 2.</_></rects>
      <tilted>0</tilted></_>
    <_>
      <rects>
        <_>
          10 14 4 7 -1.</_>
        <_>
          12 14 2 7 2.</_></rects>
      <tilted>0</tilted></_>
    <_>
      <rects>
        <_>
          11 0 2 4 -1.</_>
        <_>
          12 0 1 4 2.</_></rects>
      <tilted>0</tilted></_>
    <_>
      <rects>
        <_>
          12 0 6 24 -1.</_>
        <_>
          15 0 3 24 2.</_></rects>
      <tilted>0</tilted></_>
    <_>
      <rects>
        <_>
          12 3 4 19 -1.</_>
        <_>
          14 3 2 19 2.</_></rects>
      <tilted>0</tilted></_>
    <_>
      <rects>
        <_>
          13 1 4 13 -1.</_>
        <_>
          15 1 2 13 2.</_></rects>
      <tilted>0</tilted></_>
    <_>
      <rects>
        <_>
          13 1 4 22 -1.</_>
        <_>
          15 1 2 22 2.</_></rects>
      <tilted>0</tilted></_>
    <_>
      <rects>
        <_>
          13 2 4 21 -1.</_>
        <_>
          15 2 2 21 2.</_></rects>
      <tilted>0</tilted></_>
    <_>
      <rects>
        <_>
          14 2 10 12 -1.</_>
        <_>
          19 2 5 12 2.</_></rects>
      <tilted>0</tilted></_>
    <_>
      <rects>
        <_>
          14 14 4 10 -1.</_>
        <_>
          14 14 2 5 2.</_>
        <_>
          16 19 2 5 2.</_></rects>
      <tilted>0</tilted></_>
    <_>
      <rects>
        <_>
          14 18 2 4 -1.</_>
        <_>
          15 18 1 4 2.</_></rects>
      <tilted>0</tilted></_>
    <_>
      <rects>
        <_>
          15 4 2 16 -1.</_>
        <_>
          15 4 1 8 2.</_>
        <_>
          16 12 1 8 2.</_></rects>
      <tilted>0</tilted></_>
    <_>
      <rects>
        <_>
          15 13 2 7 -1.</_>
        <_>
          16 13 1 7 2.</_></rects>
      <tilted>0</tilted></_>
    <_>
      <rects>
        <_>
          15 15 2 4 -1.</_>
        <_>
          16 15 1 4 2.</_></rects>
      <tilted>0</tilted></_>
    <_>
      <rects>
        <_>
          16 0 6 19 -1.</_>
        <_>
          19 0 3 19 2.</_></rects>
      <tilted>0</tilted></_>
    <_>
      <rects>
        <_>
          16 13 4 2 -1.</_>
        <_>
          16 13 2 1 2.</_>
        <_>
          18 14 2 1 2.</_></rects>
      <tilted>0</tilted></_>
    <_>
      <rects>
        <_>
          17 3 5 15 -1.</_>
        <_>
          17 8 5 5 2.</_></rects>
      <tilted>0</tilted></_>
    <_>
      <rects>
        <_>
          20 0 4 4 -1.</_>
        <_>
          20 0 2 2 2.</_>
        <_>
          22 2 2 2 2.</_></rects>
      <tilted>0</tilted></_>
    <_>
      <rects>
        <_>
          20 2 2 4 -1.</_>
        <_>
          20 2 1 2 2.</_>
        <_>
          21 4 1 2 2.</_></rects>
      <tilted>0</tilted></_>
    <_>
      <rects>
        <_>
          20 7 4 12 -1.</_>
        <_>
          20 7 2 6 2.</_>
        <_>
          22 13 2 6 2.</_></rects>
      <tilted>0</tilted></_>
    <_>
      <rects>
        <_>
          20 9 4 6 -1.</_>
        <_>
          20 9 2 3 2.</_>
        <_>
          22 12 2 3 2.</_></rects>
      <tilted>0</tilted></_>
    <_>
      <rects>
        <_>
          20 13 4 6 -1.</_>
        <_>
          22 13 2 6 2.</_></rects>
      <tilted>0</tilted></_>
    <_>
      <rects>
        <_>
          20 15 4 4 -1.</_>
        <_>
          22 15 2 4 2.</_></rects>
      <tilted>0</tilted></_>
    <_>
      <rects>
        <_>
          20 17 4 2 -1.</_>
        <_>
          22 17 2 2 2.</_></rects>
      <tilted>0</tilted></_>
    <_>
      <rects>
        <_>
          21 6 3 10 -1.</_>
        <_>
          21 11 3 5 2.</_></rects>
      <tilted>0</tilted></_>
    <_>
      <rects>
        <_>
          22 0 2 6 -1.</_>
        <_>
          22 0 1 3 2.</_>
        <_>
          23 3 1 3 2.</_></rects>
      <tilted>0</tilted></_>
    <_>
      <rects>
        <_>
          22 1 2 4 -1.</_>
        <_>
          22 1 1 2 2.</_>
        <_>
          23 3 1 2 2.</_></rects>
      <tilted>0</tilted></_>
    <_>
      <rects>
        <_>
          22 10 2 8 -1.</_>
        <_>
          22 10 1 4 2.</_>
        <_>
          23 14 1 4 2.</_></rects>
      <tilted>0</tilted></_>
    <_>
      <rects>
        <_>
          22 14 2 8 -1.</_>
        <_>
          22 14 1 4 2.</_>
        <_>
          23 18 1 4 2.</_></rects>
      <tilted>0</tilted></_></features></cascade>
</opencv_storage>
