<?xml version="1.0"?>
<opencv_storage>
<stage3>
  <maxWeakCount>6</maxWeakCount>
  <stageThreshold>-1.0252716541290283e+00</stageThreshold>
  <weakClassifiers>
    <_>
      <internalNodes>
        0 -1 138206 3.3153012394905090e-02</internalNodes>
      <leafValues>
        -6.3841807842254639e-01 3.1216931343078613e-01</leafValues></_>
    <_>
      <internalNodes>
        0 -1 129924 -2.6959357783198357e-03</internalNodes>
      <leafValues>
        5.0866359472274780e-01 -3.1617254018783569e-01</leafValues></_>
    <_>
      <internalNodes>
        0 -1 52147 -9.9444277584552765e-03</internalNodes>
      <leafValues>
        6.3226789236068726e-01 -2.1999225020408630e-01</leafValues></_>
    <_>
      <internalNodes>
        0 -1 44368 1.4726105146110058e-03</internalNodes>
      <leafValues>
        -2.3533265292644501e-01 5.6214302778244019e-01</leafValues></_>
    <_>
      <internalNodes>
        0 -1 44364 -1.4359692577272654e-03</internalNodes>
      <leafValues>
        5.4648834466934204e-01 -2.1712741255760193e-01</leafValues></_>
    <_>
      <internalNodes>
        0 -1 150112 -3.5699750296771526e-03</internalNodes>
      <leafValues>
        7.7953654527664185e-01 -1.6184452176094055e-01</leafValues></_></weakClassifiers></stage3>
</opencv_storage>
