<?xml version="1.0"?>
<opencv_storage>
<stage20>
  <maxWeakCount>20</maxWeakCount>
  <stageThreshold>-1.3666014671325684e+00</stageThreshold>
  <weakClassifiers>
    <_>
      <internalNodes>
        0 -1 121147 5.0111655145883560e-03</internalNodes>
      <leafValues>
        -6.3741719722747803e-01 3.7142857909202576e-01</leafValues></_>
    <_>
      <internalNodes>
        0 -1 32003 -4.8738038167357445e-03</internalNodes>
      <leafValues>
        6.4514882862567902e-02 -3.7869918346405029e-01</leafValues></_>
    <_>
      <internalNodes>
        0 -1 37246 -8.8941061403602362e-04</internalNodes>
      <leafValues>
        1.9323509931564331e-01 -2.1647474169731140e-01</leafValues></_>
    <_>
      <internalNodes>
        0 -1 25786 -3.3011747291311622e-04</internalNodes>
      <leafValues>
        -4.6834480762481689e-01 9.5417186617851257e-02</leafValues></_>
    <_>
      <internalNodes>
        0 -1 145625 -1.9274952355772257e-03</internalNodes>
      <leafValues>
        -6.6924953460693359e-01 1.0346743464469910e-01</leafValues></_>
    <_>
      <internalNodes>
        0 -1 2502 1.6708930954337120e-02</internalNodes>
      <leafValues>
        -1.1909301578998566e-01 3.9727184176445007e-01</leafValues></_>
    <_>
      <internalNodes>
        0 -1 118498 -1.4376192120835185e-03</internalNodes>
      <leafValues>
        -3.2863524556159973e-01 1.2775459885597229e-01</leafValues></_>
    <_>
      <internalNodes>
        0 -1 148274 5.8488229115027934e-05</internalNodes>
      <leafValues>
        -2.7572140097618103e-01 1.7457126080989838e-01</leafValues></_>
    <_>
      <internalNodes>
        0 -1 73163 1.0040387511253357e-02</internalNodes>
      <leafValues>
        7.4431754648685455e-02 -5.8450496196746826e-01</leafValues></_>
    <_>
      <internalNodes>
        0 -1 138919 -2.9097399674355984e-03</internalNodes>
      <leafValues>
        4.2190423607826233e-01 -1.1438669264316559e-01</leafValues></_>
    <_>
      <internalNodes>
        0 -1 162097 -1.2198439799249172e-03</internalNodes>
      <leafValues>
        -7.8178238868713379e-01 5.9768605977296829e-02</leafValues></_>
    <_>
      <internalNodes>
        0 -1 80703 2.4813339114189148e-03</internalNodes>
      <leafValues>
        -1.3876262307167053e-01 3.4207695722579956e-01</leafValues></_>
    <_>
      <internalNodes>
        0 -1 79934 3.8065444678068161e-03</internalNodes>
      <leafValues>
        -8.2548350095748901e-02 5.2903944253921509e-01</leafValues></_>
    <_>
      <internalNodes>
        0 -1 113899 -1.3134483247995377e-02</internalNodes>
      <leafValues>
        -6.8618154525756836e-01 8.3844341337680817e-02</leafValues></_>
    <_>
      <internalNodes>
        0 -1 132075 8.2951202057301998e-04</internalNodes>
      <leafValues>
        8.6548604071140289e-02 -4.9231380224227905e-01</leafValues></_>
    <_>
      <internalNodes>
        0 -1 146072 -2.0763158798217773e-02</internalNodes>
      <leafValues>
        6.1580240726470947e-01 -8.7572328746318817e-02</leafValues></_>
    <_>
      <internalNodes>
        0 -1 149434 -1.2217100011184812e-03</internalNodes>
      <leafValues>
        3.0631411075592041e-01 -1.5818428993225098e-01</leafValues></_>
    <_>
      <internalNodes>
        0 -1 64264 -1.0567164281383157e-04</internalNodes>
      <leafValues>
        1.7242179811000824e-01 -2.8406009078025818e-01</leafValues></_>
    <_>
      <internalNodes>
        0 -1 106801 1.9242148846387863e-03</internalNodes>
      <leafValues>
        -8.6204186081886292e-02 5.8013910055160522e-01</leafValues></_>
    <_>
      <internalNodes>
        0 -1 112373 1.6119252890348434e-02</internalNodes>
      <leafValues>
        -1.7129361629486084e-01 2.7973234653472900e-01</leafValues></_></weakClassifiers></stage20>
</opencv_storage>
