<?xml version="1.0"?>
<opencv_storage>
<stage16>
  <maxWeakCount>9</maxWeakCount>
  <stageThreshold>-1.3548530340194702e+00</stageThreshold>
  <weakClassifiers>
    <_>
      <internalNodes>
        0 -1 96132 -9.3414857983589172e-03</internalNodes>
      <leafValues>
        -7.8669726848602295e-01 -1.9137465953826904e-01</leafValues></_>
    <_>
      <internalNodes>
        0 -1 40500 -5.0163984298706055e-01</internalNodes>
      <leafValues>
        -7.4056053161621094e-01 1.8441079184412956e-02</leafValues></_>
    <_>
      <internalNodes>
        0 -1 83868 2.6334322988986969e-02</internalNodes>
      <leafValues>
        8.5704445838928223e-02 -6.0586380958557129e-01</leafValues></_>
    <_>
      <internalNodes>
        0 -1 93377 -1.0972145944833755e-02</internalNodes>
      <leafValues>
        -4.6363869309425354e-01 1.6666290163993835e-01</leafValues></_>
    <_>
      <internalNodes>
        0 -1 113659 1.3143182150088251e-04</internalNodes>
      <leafValues>
        -2.6507246494293213e-01 2.7850127220153809e-01</leafValues></_>
    <_>
      <internalNodes>
        0 -1 106673 -8.7751795945223421e-05</internalNodes>
      <leafValues>
        3.2198879122734070e-01 -2.3364254832267761e-01</leafValues></_>
    <_>
      <internalNodes>
        0 -1 162050 -4.8457909724675119e-04</internalNodes>
      <leafValues>
        -4.7566112875938416e-01 1.4791198074817657e-01</leafValues></_>
    <_>
      <internalNodes>
        0 -1 93689 -4.6387277543544769e-03</internalNodes>
      <leafValues>
        -8.6202031373977661e-01 6.2156602740287781e-02</leafValues></_>
    <_>
      <internalNodes>
        0 -1 51427 -2.2508125752210617e-02</internalNodes>
      <leafValues>
        2.2142289578914642e-01 -3.3488994836807251e-01</leafValues></_></weakClassifiers></stage16>
</opencv_storage>
