<?xml version="1.0"?>
<opencv_storage>
<stage12>
  <maxWeakCount>15</maxWeakCount>
  <stageThreshold>-1.5256984233856201e+00</stageThreshold>
  <weakClassifiers>
    <_>
      <internalNodes>
        0 -1 97939 1.5312132891267538e-03</internalNodes>
      <leafValues>
        -6.4415156841278076e-01 8.6206895112991333e-01</leafValues></_>
    <_>
      <internalNodes>
        0 -1 12538 -6.6273938864469528e-04</internalNodes>
      <leafValues>
        -6.6025078296661377e-01 2.1373374387621880e-02</leafValues></_>
    <_>
      <internalNodes>
        0 -1 162099 5.4828514112159610e-04</internalNodes>
      <leafValues>
        9.6609607338905334e-02 -7.2879725694656372e-01</leafValues></_>
    <_>
      <internalNodes>
        0 -1 162099 -2.6399979833513498e-04</internalNodes>
      <leafValues>
        -5.9915024042129517e-01 1.3999047875404358e-01</leafValues></_>
    <_>
      <internalNodes>
        0 -1 128023 5.9733394300565124e-04</internalNodes>
      <leafValues>
        -4.6183180809020996e-01 1.7863349616527557e-01</leafValues></_>
    <_>
      <internalNodes>
        0 -1 90512 -1.1902412399649620e-02</internalNodes>
      <leafValues>
        5.0515770912170410e-01 -1.5696816146373749e-01</leafValues></_>
    <_>
      <internalNodes>
        0 -1 60409 4.3418765068054199e-02</internalNodes>
      <leafValues>
        1.2319812923669815e-01 -7.2587919235229492e-01</leafValues></_>
    <_>
      <internalNodes>
        0 -1 121331 8.3949994295835495e-03</internalNodes>
      <leafValues>
        -1.7837478220462799e-01 5.0221329927444458e-01</leafValues></_>
    <_>
      <internalNodes>
        0 -1 35295 -1.5086989104747772e-01</internalNodes>
      <leafValues>
        -6.7867779731750488e-01 1.0834610462188721e-01</leafValues></_>
    <_>
      <internalNodes>
        0 -1 120931 2.4297004565596581e-03</internalNodes>
      <leafValues>
        -2.1909713745117188e-01 3.3829265832901001e-01</leafValues></_>
    <_>
      <internalNodes>
        0 -1 161099 -1.7530664801597595e-02</internalNodes>
      <leafValues>
        -7.9787468910217285e-01 9.0952336788177490e-02</leafValues></_>
    <_>
      <internalNodes>
        0 -1 25605 -5.7678233133628964e-04</internalNodes>
      <leafValues>
        -7.1480792760848999e-01 8.6401708424091339e-02</leafValues></_>
    <_>
      <internalNodes>
        0 -1 28293 1.5996150672435760e-02</internalNodes>
      <leafValues>
        1.5227170288562775e-01 -4.0427988767623901e-01</leafValues></_>
    <_>
      <internalNodes>
        0 -1 795 2.0482483506202698e-01</internalNodes>
      <leafValues>
        7.0954553782939911e-02 -7.8796708583831787e-01</leafValues></_>
    <_>
      <internalNodes>
        0 -1 25786 5.9116457123309374e-04</internalNodes>
      <leafValues>
        7.0033840835094452e-02 -7.5605189800262451e-01</leafValues></_></weakClassifiers></stage12>
</opencv_storage>
