<?xml version="1.0"?>
<opencv_storage>
<stage17>
  <maxWeakCount>15</maxWeakCount>
  <stageThreshold>-1.3833665847778320e+00</stageThreshold>
  <weakClassifiers>
    <_>
      <internalNodes>
        0 -1 127500 -2.0746175199747086e-02</internalNodes>
      <leafValues>
        2.7586206793785095e-01 -6.5232068300247192e-01</leafValues></_>
    <_>
      <internalNodes>
        0 -1 67173 1.1997776478528976e-01</internalNodes>
      <leafValues>
        -2.7742135524749756e-01 2.3597782850265503e-01</leafValues></_>
    <_>
      <internalNodes>
        0 -1 43950 -5.1738414913415909e-02</internalNodes>
      <leafValues>
        3.1401973962783813e-01 -1.8067963421344757e-01</leafValues></_>
    <_>
      <internalNodes>
        0 -1 83524 -5.9031031560152769e-04</internalNodes>
      <leafValues>
        3.0176550149917603e-01 -1.9627740979194641e-01</leafValues></_>
    <_>
      <internalNodes>
        0 -1 145406 1.8764287233352661e-03</internalNodes>
      <leafValues>
        -1.4099086821079254e-01 3.8383898138999939e-01</leafValues></_>
    <_>
      <internalNodes>
        0 -1 113958 -1.6948141157627106e-02</internalNodes>
      <leafValues>
        6.7547070980072021e-01 -8.0003537237644196e-02</leafValues></_>
    <_>
      <internalNodes>
        0 -1 157959 -1.3433515559881926e-03</internalNodes>
      <leafValues>
        3.6509504914283752e-01 -1.4781270921230316e-01</leafValues></_>
    <_>
      <internalNodes>
        0 -1 92779 5.5368579924106598e-03</internalNodes>
      <leafValues>
        -1.0329046100378036e-01 5.6431823968887329e-01</leafValues></_>
    <_>
      <internalNodes>
        0 -1 47331 7.6683789491653442e-02</internalNodes>
      <leafValues>
        1.6424454748630524e-01 -5.1280081272125244e-01</leafValues></_>
    <_>
      <internalNodes>
        0 -1 100904 -6.2931645661592484e-03</internalNodes>
      <leafValues>
        3.8665938377380371e-01 -1.6621944308280945e-01</leafValues></_>
    <_>
      <internalNodes>
        0 -1 50180 -5.3020315244793892e-03</internalNodes>
      <leafValues>
        2.9773372411727905e-01 -1.8612881004810333e-01</leafValues></_>
    <_>
      <internalNodes>
        0 -1 53018 -2.9318544548004866e-03</internalNodes>
      <leafValues>
        4.1900196671485901e-01 -1.0348396003246307e-01</leafValues></_>
    <_>
      <internalNodes>
        0 -1 121304 -1.1909268796443939e-03</internalNodes>
      <leafValues>
        3.7764817476272583e-01 -1.5018866956233978e-01</leafValues></_>
    <_>
      <internalNodes>
        0 -1 73536 -6.1760980635881424e-02</internalNodes>
      <leafValues>
        -8.4994912147521973e-01 6.6755585372447968e-02</leafValues></_>
    <_>
      <internalNodes>
        0 -1 42972 -5.0312448292970657e-03</internalNodes>
      <leafValues>
        2.1757195889949799e-01 -2.6317003369331360e-01</leafValues></_></weakClassifiers></stage17>
</opencv_storage>
