<?xml version="1.0"?>
<opencv_storage>
<stage18>
  <maxWeakCount>17</maxWeakCount>
  <stageThreshold>-1.3212475776672363e+00</stageThreshold>
  <weakClassifiers>
    <_>
      <internalNodes>
        0 -1 396 -1.1711379140615463e-01</internalNodes>
      <leafValues>
        -3.8795182108879089e-01 -7.1980679035186768e-01</leafValues></_>
    <_>
      <internalNodes>
        0 -1 113708 1.5892740339040756e-02</internalNodes>
      <leafValues>
        -5.0306695699691772e-01 9.1051571071147919e-03</leafValues></_>
    <_>
      <internalNodes>
        0 -1 132156 -2.2108081728219986e-02</internalNodes>
      <leafValues>
        -6.5272629261016846e-01 6.2212046235799789e-02</leafValues></_>
    <_>
      <internalNodes>
        0 -1 89779 4.5286286622285843e-03</internalNodes>
      <leafValues>
        -1.0200335830450058e-01 4.3842503428459167e-01</leafValues></_>
    <_>
      <internalNodes>
        0 -1 135332 -6.0279268771409988e-02</internalNodes>
      <leafValues>
        7.2756457328796387e-01 -7.4393436312675476e-02</leafValues></_>
    <_>
      <internalNodes>
        0 -1 93767 8.3971768617630005e-03</internalNodes>
      <leafValues>
        9.7868628799915314e-02 -6.0307973623275757e-01</leafValues></_>
    <_>
      <internalNodes>
        0 -1 49467 -3.7806887121405452e-05</internalNodes>
      <leafValues>
        1.4603933691978455e-01 -3.5503411293029785e-01</leafValues></_>
    <_>
      <internalNodes>
        0 -1 88873 1.2991786934435368e-02</internalNodes>
      <leafValues>
        -1.0961956530809402e-01 5.1891422271728516e-01</leafValues></_>
    <_>
      <internalNodes>
        0 -1 140715 -4.9403333105146885e-04</internalNodes>
      <leafValues>
        1.6433377563953400e-01 -3.4957227110862732e-01</leafValues></_>
    <_>
      <internalNodes>
        0 -1 161026 -4.7198642278090119e-04</internalNodes>
      <leafValues>
        -4.7218987345695496e-01 1.1580999195575714e-01</leafValues></_>
    <_>
      <internalNodes>
        0 -1 107041 3.0785612761974335e-03</internalNodes>
      <leafValues>
        -1.1332944035530090e-01 4.9955013394355774e-01</leafValues></_>
    <_>
      <internalNodes>
        0 -1 88964 3.6881748586893082e-02</internalNodes>
      <leafValues>
        8.4225282073020935e-02 -6.9547575712203979e-01</leafValues></_>
    <_>
      <internalNodes>
        0 -1 8371 4.5163169503211975e-02</internalNodes>
      <leafValues>
        -8.7729215621948242e-02 7.0905834436416626e-01</leafValues></_>
    <_>
      <internalNodes>
        0 -1 114413 -1.4772175345569849e-03</internalNodes>
      <leafValues>
        3.9071097970008850e-01 -1.4791691303253174e-01</leafValues></_>
    <_>
      <internalNodes>
        0 -1 93790 -8.2587190263438970e-05</internalNodes>
      <leafValues>
        1.8576964735984802e-01 -2.9048153758049011e-01</leafValues></_>
    <_>
      <internalNodes>
        0 -1 140216 5.0630576908588409e-02</internalNodes>
      <leafValues>
        -2.4910326302051544e-01 2.4293972551822662e-01</leafValues></_>
    <_>
      <internalNodes>
        0 -1 37450 3.9547620690427721e-04</internalNodes>
      <leafValues>
        8.3477362990379333e-02 -6.1557525396347046e-01</leafValues></_></weakClassifiers></stage18>
</opencv_storage>
