<?xml version="1.0"?>
<opencv_storage>
<stage5>
  <maxWeakCount>12</maxWeakCount>
  <stageThreshold>-1.3157917261123657e+00</stageThreshold>
  <weakClassifiers>
    <_>
      <internalNodes>
        0 -1 99698 -3.5205450654029846e-01</internalNodes>
      <leafValues>
        -1.4721919596195221e-01 -8.1261950731277466e-01</leafValues></_>
    <_>
      <internalNodes>
        0 -1 564 -6.9659738801419735e-03</internalNodes>
      <leafValues>
        5.4225093126296997e-01 -2.5480604171752930e-01</leafValues></_>
    <_>
      <internalNodes>
        0 -1 13226 -7.6292115263640881e-03</internalNodes>
      <leafValues>
        3.4407907724380493e-01 -2.8369703888893127e-01</leafValues></_>
    <_>
      <internalNodes>
        0 -1 19477 -4.8975255340337753e-03</internalNodes>
      <leafValues>
        4.5634755492210388e-01 -2.1099348366260529e-01</leafValues></_>
    <_>
      <internalNodes>
        0 -1 151792 -5.4826857522130013e-03</internalNodes>
      <leafValues>
        1.6498146951198578e-01 -7.5693458318710327e-01</leafValues></_>
    <_>
      <internalNodes>
        0 -1 135627 3.0397982336580753e-03</internalNodes>
      <leafValues>
        -1.8241448700428009e-01 5.2166223526000977e-01</leafValues></_>
    <_>
      <internalNodes>
        0 -1 140835 -1.1791151482611895e-03</internalNodes>
      <leafValues>
        4.5644679665565491e-01 -2.0004853606224060e-01</leafValues></_>
    <_>
      <internalNodes>
        0 -1 136966 1.3562204316258430e-02</internalNodes>
      <leafValues>
        -1.9298362731933594e-01 3.9671158790588379e-01</leafValues></_>
    <_>
      <internalNodes>
        0 -1 52182 -2.4193269200623035e-03</internalNodes>
      <leafValues>
        5.4291915893554688e-01 -1.3539721071720123e-01</leafValues></_>
    <_>
      <internalNodes>
        0 -1 91962 -9.8156533204019070e-04</internalNodes>
      <leafValues>
        4.8518878221511841e-01 -1.7619659006595612e-01</leafValues></_>
    <_>
      <internalNodes>
        0 -1 108651 4.0865334449335933e-04</internalNodes>
      <leafValues>
        -2.2015130519866943e-01 3.4263777732849121e-01</leafValues></_>
    <_>
      <internalNodes>
        0 -1 148184 3.5689555807039142e-04</internalNodes>
      <leafValues>
        -1.8094240128993988e-01 4.1968563199043274e-01</leafValues></_></weakClassifiers></stage5>
</opencv_storage>
