<?xml version="1.0"?>
<opencv_storage>
<stage7>
  <maxWeakCount>17</maxWeakCount>
  <stageThreshold>-1.2138468027114868e+00</stageThreshold>
  <weakClassifiers>
    <_>
      <internalNodes>
        0 -1 105681 -8.1265531480312347e-03</internalNodes>
      <leafValues>
        -5.0305807590484619e-01 7.4242424964904785e-01</leafValues></_>
    <_>
      <internalNodes>
        0 -1 106827 -2.9879543930292130e-02</internalNodes>
      <leafValues>
        -3.8006585836410522e-01 2.0314398407936096e-01</leafValues></_>
    <_>
      <internalNodes>
        0 -1 136313 1.1787395924329758e-02</internalNodes>
      <leafValues>
        -2.3512122035026550e-01 2.9833367466926575e-01</leafValues></_>
    <_>
      <internalNodes>
        0 -1 40068 -3.4423194825649261e-02</internalNodes>
      <leafValues>
        3.8929101824760437e-01 -1.6679878532886505e-01</leafValues></_>
    <_>
      <internalNodes>
        0 -1 21168 4.2284660041332245e-02</internalNodes>
      <leafValues>
        -1.1258744448423386e-01 5.2641326189041138e-01</leafValues></_>
    <_>
      <internalNodes>
        0 -1 20501 -3.4494377672672272e-02</internalNodes>
      <leafValues>
        3.7559798359870911e-01 -1.4820832014083862e-01</leafValues></_>
    <_>
      <internalNodes>
        0 -1 13359 -4.3365653604269028e-02</internalNodes>
      <leafValues>
        -5.9034472703933716e-01 9.4924449920654297e-02</leafValues></_>
    <_>
      <internalNodes>
        0 -1 70585 -8.4704011678695679e-03</internalNodes>
      <leafValues>
        3.4125700592994690e-01 -1.6464562714099884e-01</leafValues></_>
    <_>
      <internalNodes>
        0 -1 79694 -1.7692714929580688e-02</internalNodes>
      <leafValues>
        -7.7348120510578156e-02 7.7620869874954224e-01</leafValues></_>
    <_>
      <internalNodes>
        0 -1 28767 -2.1367225795984268e-02</internalNodes>
      <leafValues>
        5.0695186853408813e-01 -7.8639149665832520e-02</leafValues></_>
    <_>
      <internalNodes>
        0 -1 18948 1.6564287245273590e-02</internalNodes>
      <leafValues>
        -1.3580465316772461e-01 4.6114882826805115e-01</leafValues></_>
    <_>
      <internalNodes>
        0 -1 108655 -2.0392499864101410e-03</internalNodes>
      <leafValues>
        3.3015036582946777e-01 -1.6463482379913330e-01</leafValues></_>
    <_>
      <internalNodes>
        0 -1 89988 3.3688456751406193e-03</internalNodes>
      <leafValues>
        -1.0819688439369202e-01 4.7830593585968018e-01</leafValues></_>
    <_>
      <internalNodes>
        0 -1 89988 -1.5683134552091360e-03</internalNodes>
      <leafValues>
        3.3758088946342468e-01 -1.7096427083015442e-01</leafValues></_>
    <_>
      <internalNodes>
        0 -1 46952 8.0938357859849930e-03</internalNodes>
      <leafValues>
        -2.1132241189479828e-01 2.9209908843040466e-01</leafValues></_>
    <_>
      <internalNodes>
        0 -1 27270 -4.9951881170272827e-02</internalNodes>
      <leafValues>
        -1.1039429903030396e-01 6.1775237321853638e-01</leafValues></_>
    <_>
      <internalNodes>
        0 -1 135949 -3.0045552179217339e-02</internalNodes>
      <leafValues>
        6.3624483346939087e-01 -7.5124017894268036e-02</leafValues></_></weakClassifiers></stage7>
</opencv_storage>
