<?xml version="1.0"?>
<opencv_storage>
<stage2>
  <maxWeakCount>6</maxWeakCount>
  <stageThreshold>-1.2170901298522949e+00</stageThreshold>
  <weakClassifiers>
    <_>
      <internalNodes>
        0 -1 132895 2.9955975711345673e-02</internalNodes>
      <leafValues>
        -7.0494866371154785e-01 5.2845525741577148e-01</leafValues></_>
    <_>
      <internalNodes>
        0 -1 153825 -7.1037877351045609e-03</internalNodes>
      <leafValues>
        7.9224479198455811e-01 -3.6974075436592102e-01</leafValues></_>
    <_>
      <internalNodes>
        0 -1 80849 9.1803260147571564e-04</internalNodes>
      <leafValues>
        -2.9070240259170532e-01 7.1717560291290283e-01</leafValues></_>
    <_>
      <internalNodes>
        0 -1 70885 -2.2793882526457310e-03</internalNodes>
      <leafValues>
        7.9849511384963989e-01 -2.4474231898784637e-01</leafValues></_>
    <_>
      <internalNodes>
        0 -1 152210 4.1980203241109848e-03</internalNodes>
      <leafValues>
        -2.0897653698921204e-01 8.4563207626342773e-01</leafValues></_>
    <_>
      <internalNodes>
        0 -1 10768 -3.8012538105249405e-02</internalNodes>
      <leafValues>
        6.0202050209045410e-01 -2.7430963516235352e-01</leafValues></_></weakClassifiers></stage2>
</opencv_storage>
