<?xml version="1.0"?>
<opencv_storage>
<stage4>
  <maxWeakCount>10</maxWeakCount>
  <stageThreshold>-1.0743447542190552e+00</stageThreshold>
  <weakClassifiers>
    <_>
      <internalNodes>
        0 -1 98973 -3.7329699844121933e-03</internalNodes>
      <leafValues>
        4.4664031267166138e-01 -5.6697559356689453e-01</leafValues></_>
    <_>
      <internalNodes>
        0 -1 54160 -4.6586636453866959e-03</internalNodes>
      <leafValues>
        5.3549915552139282e-01 -3.0080506205558777e-01</leafValues></_>
    <_>
      <internalNodes>
        0 -1 98813 1.0937361512333155e-03</internalNodes>
      <leafValues>
        -2.6076146960258484e-01 4.9602195620536804e-01</leafValues></_>
    <_>
      <internalNodes>
        0 -1 121376 -4.3233864009380341e-02</internalNodes>
      <leafValues>
        -5.5586111545562744e-01 2.6538544893264771e-01</leafValues></_>
    <_>
      <internalNodes>
        0 -1 57204 -3.9908982580527663e-04</internalNodes>
      <leafValues>
        6.9777202606201172e-01 -1.6895987093448639e-01</leafValues></_>
    <_>
      <internalNodes>
        0 -1 70658 1.9033286953344941e-03</internalNodes>
      <leafValues>
        -1.8165121972560883e-01 7.0266282558441162e-01</leafValues></_>
    <_>
      <internalNodes>
        0 -1 156129 1.7386054387316108e-03</internalNodes>
      <leafValues>
        -1.7411449551582336e-01 6.8075376749038696e-01</leafValues></_>
    <_>
      <internalNodes>
        0 -1 92584 -1.5488683711737394e-03</internalNodes>
      <leafValues>
        7.9877281188964844e-01 -1.1706042289733887e-01</leafValues></_>
    <_>
      <internalNodes>
        0 -1 80136 8.6992478463798761e-04</internalNodes>
      <leafValues>
        -1.5644463896751404e-01 6.6802203655242920e-01</leafValues></_>
    <_>
      <internalNodes>
        0 -1 73912 2.3910333402454853e-03</internalNodes>
      <leafValues>
        -1.6974082589149475e-01 6.2437301874160767e-01</leafValues></_></weakClassifiers></stage4>
</opencv_storage>
